=== Run information ===

Scheme:       weka.classifiers.trees.J48 -C 0.25 -M 2
Relation:     whatever
Instances:    39774
Attributes:   1001
              [list of attributes omitted]
Test mode:    split 66.0% train, remainder test

=== Classifier model (full training set) ===

J48 pruned tree
------------------

130 <= 0.33
|   133 <= 0.39
|   |   120 <= 0.38
|   |   |   868 <= 0.51: italian (3.0)
|   |   |   868 > 0.51
|   |   |   |   82 <= 0.45: french (9.0)
|   |   |   |   82 > 0.45: british (3.0/1.0)
|   |   120 > 0.38
|   |   |   3 <= 0.68
|   |   |   |   143 <= 0.65
|   |   |   |   |   248 <= 0.3
|   |   |   |   |   |   2 <= 0.38: greek (2.0/1.0)
|   |   |   |   |   |   2 > 0.38: vietnamese (2.0)
|   |   |   |   |   248 > 0.3
|   |   |   |   |   |   103 <= 0.72
|   |   |   |   |   |   |   436 <= 0.39: korean (12.0/1.0)
|   |   |   |   |   |   |   436 > 0.39
|   |   |   |   |   |   |   |   271 <= 0.38: korean (3.0/2.0)
|   |   |   |   |   |   |   |   271 > 0.38
|   |   |   |   |   |   |   |   |   128 <= 0.61
|   |   |   |   |   |   |   |   |   |   289 <= 0.68
|   |   |   |   |   |   |   |   |   |   |   440 <= 0.67
|   |   |   |   |   |   |   |   |   |   |   |   42 <= 0.76
|   |   |   |   |   |   |   |   |   |   |   |   |   19 <= 0.19: chinese (4.0/1.0)
|   |   |   |   |   |   |   |   |   |   |   |   |   19 > 0.19
|   |   |   |   |   |   |   |   |   |   |   |   |   |   276 <= 0.81
|   |   |   |   |   |   |   |   |   |   |   |   |   |   |   201 <= 0.25: korean (3.0)
|   |   |   |   |   |   |   |   |   |   |   |   |   |   |   201 > 0.25
|   |   |   |   |   |   |   |   |   |   |   |   |   |   |   |   198 <= 0.72
|   |   |   |   |   |   |   |   |   |   |   |   |   |   |   |   |   141 <= 0.65
|   |   |   |   |   |   |   |   |   |   |   |   |   |   |   |   |   |   361 <= 0.76
|   |   |   |   |   |   |   |   |   |   |   |   |   |   |   |   |   |   |   124 <= 0.57
|   |   |   |   |   |   |   |   |   |   |   |   |   |   |   |   |   |   |   |   350 <= 0.22: chinese (2.0/1.0)
|   |   |   |   |   |   |   |   |   |   |   |   |   |   |   |   |   |   |   |   350 > 0.22
|   |   |   |   |   |   |   |   |   |   |   |   |   |   |   |   |   |   |   |   |   316 <= 0.75
|   |   |   |   |   |   |   |   |   |   |   |   |   |   |   |   |   |   |   |   |   |   712 <= 0.69
|   |   |   |   |   |   |   |   |   |   |   |   |   |   |   |   |   |   |   |   |   |   |   111 <= 0.31: chinese (3.0/1.0)
|   |   |   |   |   |   |   |   |   |   |   |   |   |   |   |   |   |   |   |   |   |   |   111 > 0.31
|   |   |   |   |   |   |   |   |   |   |   |   |   |   |   |   |   |   |   |   |   |   |   |   16 <= 0.34
|   |   |   |   |   |   |   |   |   |   |   |   |   |   |   |   |   |   |   |   |   |   |   |   |   25 <= 0.49: korean (3.0)
|   |   |   |   |   |   |   |   |   |   |   |   |   |   |   |   |   |   |   |   |   |   |   |   |   25 > 0.49: japanese (2.0)
|   |   |   |   |   |   |   |   |   |   |   |   |   |   |   |   |   |   |   |   |   |   |   |   16 > 0.34
|   |   |   |   |   |   |   |   |   |   |   |   |   |   |   |   |   |   |   |   |   |   |   |   |   645 <= 0.48
|   |   |   |   |   |   |   |   |   |   |   |   |   |   |   |   |   |   |   |   |   |   |   |   |   |   203 <= 0.39: japanese (15.0/2.0)
|   |   |   |   |   |   |   |   |   |   |   |   |   |   |   |   |   |   |   |   |   |   |   |   |   |   203 > 0.39: korean (3.0)
|   |   |   |   |   |   |   |   |   |   |   |   |   |   |   |   |   |   |   |   |   |   |   |   |   645 > 0.48
|   |   |   |   |   |   |   |   |   |   |   |   |   |   |   |   |   |   |   |   |   |   |   |   |   |   34 <= 0.59: japanese (360.0/2.0)
|   |   |   |   |   |   |   |   |   |   |   |   |   |   |   |   |   |   |   |   |   |   |   |   |   |   34 > 0.59
|   |   |   |   |   |   |   |   |   |   |   |   |   |   |   |   |   |   |   |   |   |   |   |   |   |   |   403 <= 0.45: korean (2.0)
|   |   |   |   |   |   |   |   |   |   |   |   |   |   |   |   |   |   |   |   |   |   |   |   |   |   |   403 > 0.45: japanese (5.0)
|   |   |   |   |   |   |   |   |   |   |   |   |   |   |   |   |   |   |   |   |   |   712 > 0.69: korean (2.0/1.0)
|   |   |   |   |   |   |   |   |   |   |   |   |   |   |   |   |   |   |   |   |   316 > 0.75: korean (2.0/1.0)
|   |   |   |   |   |   |   |   |   |   |   |   |   |   |   |   |   |   |   124 > 0.57
|   |   |   |   |   |   |   |   |   |   |   |   |   |   |   |   |   |   |   |   289 <= 0.45: chinese (3.0)
|   |   |   |   |   |   |   |   |   |   |   |   |   |   |   |   |   |   |   |   289 > 0.45
|   |   |   |   |   |   |   |   |   |   |   |   |   |   |   |   |   |   |   |   |   4 <= 0.49: japanese (2.0)
|   |   |   |   |   |   |   |   |   |   |   |   |   |   |   |   |   |   |   |   |   4 > 0.49: thai (2.0)
|   |   |   |   |   |   |   |   |   |   |   |   |   |   |   |   |   |   361 > 0.76: chinese (3.0)
|   |   |   |   |   |   |   |   |   |   |   |   |   |   |   |   |   141 > 0.65
|   |   |   |   |   |   |   |   |   |   |   |   |   |   |   |   |   |   14 <= 0.48: vietnamese (2.0/1.0)
|   |   |   |   |   |   |   |   |   |   |   |   |   |   |   |   |   |   14 > 0.48: chinese (3.0/1.0)
|   |   |   |   |   |   |   |   |   |   |   |   |   |   |   |   198 > 0.72: chinese (3.0/1.0)
|   |   |   |   |   |   |   |   |   |   |   |   |   |   276 > 0.81: korean (3.0/1.0)
|   |   |   |   |   |   |   |   |   |   |   |   42 > 0.76: korean (3.0/1.0)
|   |   |   |   |   |   |   |   |   |   |   440 > 0.67
|   |   |   |   |   |   |   |   |   |   |   |   5 <= 0.64: korean (2.0)
|   |   |   |   |   |   |   |   |   |   |   |   5 > 0.64: filipino (2.0/1.0)
|   |   |   |   |   |   |   |   |   |   289 > 0.68: korean (5.0)
|   |   |   |   |   |   |   |   |   128 > 0.61: chinese (6.0/1.0)
|   |   |   |   |   |   103 > 0.72: thai (3.0)
|   |   |   |   143 > 0.65
|   |   |   |   |   524 <= 0.61
|   |   |   |   |   |   334 <= 0.5: italian (3.0/1.0)
|   |   |   |   |   |   334 > 0.5: vietnamese (3.0)
|   |   |   |   |   524 > 0.61: french (4.0/1.0)
|   |   |   3 > 0.68
|   |   |   |   449 <= 0.44: italian (7.0/1.0)
|   |   |   |   449 > 0.44: moroccan (2.0)
|   133 > 0.39
|   |   112 <= 0.6
|   |   |   320 <= 0.69
|   |   |   |   437 <= 0.27
|   |   |   |   |   149 <= 0.54
|   |   |   |   |   |   1 <= 0.63: brazilian (2.0/1.0)
|   |   |   |   |   |   1 > 0.63: vietnamese (2.0)
|   |   |   |   |   149 > 0.54: korean (4.0/1.0)
|   |   |   |   437 > 0.27
|   |   |   |   |   125 <= 0.4
|   |   |   |   |   |   984 <= 0.44: british (10.0/1.0)
|   |   |   |   |   |   984 > 0.44
|   |   |   |   |   |   |   104 <= 0.41
|   |   |   |   |   |   |   |   615 <= 0.6: jamaican (5.0/1.0)
|   |   |   |   |   |   |   |   615 > 0.6
|   |   |   |   |   |   |   |   |   51 <= 0.45: indian (3.0)
|   |   |   |   |   |   |   |   |   51 > 0.45: cajun_creole (2.0/1.0)
|   |   |   |   |   |   |   104 > 0.41
|   |   |   |   |   |   |   |   273 <= 0.38
|   |   |   |   |   |   |   |   |   2 <= 0.37: indian (2.0)
|   |   |   |   |   |   |   |   |   2 > 0.37: greek (2.0/1.0)
|   |   |   |   |   |   |   |   273 > 0.38
|   |   |   |   |   |   |   |   |   146 <= 0.62
|   |   |   |   |   |   |   |   |   |   259 <= 0.59
|   |   |   |   |   |   |   |   |   |   |   652 <= 0.41: vietnamese (3.0/1.0)
|   |   |   |   |   |   |   |   |   |   |   652 > 0.41: moroccan (7.0/1.0)
|   |   |   |   |   |   |   |   |   |   259 > 0.59
|   |   |   |   |   |   |   |   |   |   |   359 <= 0.49: southern_us (7.0)
|   |   |   |   |   |   |   |   |   |   |   359 > 0.49
|   |   |   |   |   |   |   |   |   |   |   |   683 <= 0.52
|   |   |   |   |   |   |   |   |   |   |   |   |   122 <= 0.6: chinese (8.0)
|   |   |   |   |   |   |   |   |   |   |   |   |   122 > 0.6: italian (4.0/1.0)
|   |   |   |   |   |   |   |   |   |   |   |   683 > 0.52: korean (4.0)
|   |   |   |   |   |   |   |   |   146 > 0.62
|   |   |   |   |   |   |   |   |   |   311 <= 0.5: french (3.0)
|   |   |   |   |   |   |   |   |   |   311 > 0.5: british (3.0/2.0)
|   |   |   |   |   125 > 0.4
|   |   |   |   |   |   668 <= 0.33
|   |   |   |   |   |   |   6 <= 0.38: cajun_creole (2.0/1.0)
|   |   |   |   |   |   |   6 > 0.38: irish (2.0)
|   |   |   |   |   |   668 > 0.33
|   |   |   |   |   |   |   777 <= 0.5
|   |   |   |   |   |   |   |   17 <= 0.55: thai (2.0)
|   |   |   |   |   |   |   |   17 > 0.55: chinese (3.0/1.0)
|   |   |   |   |   |   |   777 > 0.5
|   |   |   |   |   |   |   |   3 <= 0.42
|   |   |   |   |   |   |   |   |   749 <= 0.52
|   |   |   |   |   |   |   |   |   |   296 <= 0.51: chinese (8.0/1.0)
|   |   |   |   |   |   |   |   |   |   296 > 0.51: thai (3.0/1.0)
|   |   |   |   |   |   |   |   |   749 > 0.52: vietnamese (3.0/2.0)
|   |   |   |   |   |   |   |   3 > 0.42
|   |   |   |   |   |   |   |   |   99 <= 0.32
|   |   |   |   |   |   |   |   |   |   1 <= 0.35: spanish (2.0/1.0)
|   |   |   |   |   |   |   |   |   |   1 > 0.35: indian (2.0/1.0)
|   |   |   |   |   |   |   |   |   99 > 0.32
|   |   |   |   |   |   |   |   |   |   971 <= 0.67
|   |   |   |   |   |   |   |   |   |   |   142 <= 0.35
|   |   |   |   |   |   |   |   |   |   |   |   705 <= 0.53: french (7.0)
|   |   |   |   |   |   |   |   |   |   |   |   705 > 0.53: greek (2.0)
|   |   |   |   |   |   |   |   |   |   |   142 > 0.35
|   |   |   |   |   |   |   |   |   |   |   |   201 <= 0.4
|   |   |   |   |   |   |   |   |   |   |   |   |   815 <= 0.55
|   |   |   |   |   |   |   |   |   |   |   |   |   |   46 <= 0.49: southern_us (7.0/1.0)
|   |   |   |   |   |   |   |   |   |   |   |   |   |   46 > 0.49: french (3.0/1.0)
|   |   |   |   |   |   |   |   |   |   |   |   |   815 > 0.55: cajun_creole (3.0)
|   |   |   |   |   |   |   |   |   |   |   |   201 > 0.4
|   |   |   |   |   |   |   |   |   |   |   |   |   817 <= 0.72
|   |   |   |   |   |   |   |   |   |   |   |   |   |   109 <= 0.29
|   |   |   |   |   |   |   |   |   |   |   |   |   |   |   102 <= 0.38
|   |   |   |   |   |   |   |   |   |   |   |   |   |   |   |   781 <= 0.5: greek (4.0)
|   |   |   |   |   |   |   |   |   |   |   |   |   |   |   |   781 > 0.5: italian (3.0/1.0)
|   |   |   |   |   |   |   |   |   |   |   |   |   |   |   102 > 0.38: spanish (6.0)
|   |   |   |   |   |   |   |   |   |   |   |   |   |   109 > 0.29
|   |   |   |   |   |   |   |   |   |   |   |   |   |   |   958 <= 0.6
|   |   |   |   |   |   |   |   |   |   |   |   |   |   |   |   141 <= 0.71
|   |   |   |   |   |   |   |   |   |   |   |   |   |   |   |   |   85 <= 0.55
|   |   |   |   |   |   |   |   |   |   |   |   |   |   |   |   |   |   20 <= 0.38
|   |   |   |   |   |   |   |   |   |   |   |   |   |   |   |   |   |   |   467 <= 0.44
|   |   |   |   |   |   |   |   |   |   |   |   |   |   |   |   |   |   |   |   808 <= 0.58: italian (3.0)
|   |   |   |   |   |   |   |   |   |   |   |   |   |   |   |   |   |   |   |   808 > 0.58: british (3.0)
|   |   |   |   |   |   |   |   |   |   |   |   |   |   |   |   |   |   |   467 > 0.44: southern_us (5.0)
|   |   |   |   |   |   |   |   |   |   |   |   |   |   |   |   |   |   20 > 0.38
|   |   |   |   |   |   |   |   |   |   |   |   |   |   |   |   |   |   |   11 <= 0.54
|   |   |   |   |   |   |   |   |   |   |   |   |   |   |   |   |   |   |   |   965 <= 0.65
|   |   |   |   |   |   |   |   |   |   |   |   |   |   |   |   |   |   |   |   |   450 <= 0.7
|   |   |   |   |   |   |   |   |   |   |   |   |   |   |   |   |   |   |   |   |   |   209 <= 0.35: british (3.0/1.0)
|   |   |   |   |   |   |   |   |   |   |   |   |   |   |   |   |   |   |   |   |   |   209 > 0.35
|   |   |   |   |   |   |   |   |   |   |   |   |   |   |   |   |   |   |   |   |   |   |   330 <= 0.59
|   |   |   |   |   |   |   |   |   |   |   |   |   |   |   |   |   |   |   |   |   |   |   |   782 <= 0.63
|   |   |   |   |   |   |   |   |   |   |   |   |   |   |   |   |   |   |   |   |   |   |   |   |   129 <= 0.38
|   |   |   |   |   |   |   |   |   |   |   |   |   |   |   |   |   |   |   |   |   |   |   |   |   |   83 <= 0.58: russian (2.0)
|   |   |   |   |   |   |   |   |   |   |   |   |   |   |   |   |   |   |   |   |   |   |   |   |   |   83 > 0.58
|   |   |   |   |   |   |   |   |   |   |   |   |   |   |   |   |   |   |   |   |   |   |   |   |   |   |   1 <= 0.6: italian (2.0)
|   |   |   |   |   |   |   |   |   |   |   |   |   |   |   |   |   |   |   |   |   |   |   |   |   |   |   1 > 0.6: french (3.0)
|   |   |   |   |   |   |   |   |   |   |   |   |   |   |   |   |   |   |   |   |   |   |   |   |   129 > 0.38
|   |   |   |   |   |   |   |   |   |   |   |   |   |   |   |   |   |   |   |   |   |   |   |   |   |   991 <= 0.57
|   |   |   |   |   |   |   |   |   |   |   |   |   |   |   |   |   |   |   |   |   |   |   |   |   |   |   403 <= 0.63
|   |   |   |   |   |   |   |   |   |   |   |   |   |   |   |   |   |   |   |   |   |   |   |   |   |   |   |   407 <= 0.31: french (3.0)
|   |   |   |   |   |   |   |   |   |   |   |   |   |   |   |   |   |   |   |   |   |   |   |   |   |   |   |   407 > 0.31
|   |   |   |   |   |   |   |   |   |   |   |   |   |   |   |   |   |   |   |   |   |   |   |   |   |   |   |   |   24 <= 0.75
|   |   |   |   |   |   |   |   |   |   |   |   |   |   |   |   |   |   |   |   |   |   |   |   |   |   |   |   |   |   910 <= 0.57
|   |   |   |   |   |   |   |   |   |   |   |   |   |   |   |   |   |   |   |   |   |   |   |   |   |   |   |   |   |   |   107 <= 0.59: italian (157.0/7.0)
|   |   |   |   |   |   |   |   |   |   |   |   |   |   |   |   |   |   |   |   |   |   |   |   |   |   |   |   |   |   |   107 > 0.59
|   |   |   |   |   |   |   |   |   |   |   |   |   |   |   |   |   |   |   |   |   |   |   |   |   |   |   |   |   |   |   |   1 <= 0.19: italian (2.0)
|   |   |   |   |   |   |   |   |   |   |   |   |   |   |   |   |   |   |   |   |   |   |   |   |   |   |   |   |   |   |   |   1 > 0.19: french (2.0)
|   |   |   |   |   |   |   |   |   |   |   |   |   |   |   |   |   |   |   |   |   |   |   |   |   |   |   |   |   |   910 > 0.57: french (3.0/1.0)
|   |   |   |   |   |   |   |   |   |   |   |   |   |   |   |   |   |   |   |   |   |   |   |   |   |   |   |   |   24 > 0.75: french (2.0)
|   |   |   |   |   |   |   |   |   |   |   |   |   |   |   |   |   |   |   |   |   |   |   |   |   |   |   403 > 0.63: french (2.0)
|   |   |   |   |   |   |   |   |   |   |   |   |   |   |   |   |   |   |   |   |   |   |   |   |   |   991 > 0.57: french (2.0)
|   |   |   |   |   |   |   |   |   |   |   |   |   |   |   |   |   |   |   |   |   |   |   |   782 > 0.63: french (2.0/1.0)
|   |   |   |   |   |   |   |   |   |   |   |   |   |   |   |   |   |   |   |   |   |   |   330 > 0.59: british (2.0/1.0)
|   |   |   |   |   |   |   |   |   |   |   |   |   |   |   |   |   |   |   |   |   450 > 0.7: french (6.0/1.0)
|   |   |   |   |   |   |   |   |   |   |   |   |   |   |   |   |   |   |   |   965 > 0.65: spanish (2.0/1.0)
|   |   |   |   |   |   |   |   |   |   |   |   |   |   |   |   |   |   |   11 > 0.54: british (3.0/1.0)
|   |   |   |   |   |   |   |   |   |   |   |   |   |   |   |   |   85 > 0.55
|   |   |   |   |   |   |   |   |   |   |   |   |   |   |   |   |   |   8 <= 0.41: greek (2.0/1.0)
|   |   |   |   |   |   |   |   |   |   |   |   |   |   |   |   |   |   8 > 0.41: mexican (2.0)
|   |   |   |   |   |   |   |   |   |   |   |   |   |   |   |   141 > 0.71
|   |   |   |   |   |   |   |   |   |   |   |   |   |   |   |   |   777 <= 0.53: southern_us (3.0)
|   |   |   |   |   |   |   |   |   |   |   |   |   |   |   |   |   777 > 0.53
|   |   |   |   |   |   |   |   |   |   |   |   |   |   |   |   |   |   549 <= 0.47: french (3.0/1.0)
|   |   |   |   |   |   |   |   |   |   |   |   |   |   |   |   |   |   549 > 0.47
|   |   |   |   |   |   |   |   |   |   |   |   |   |   |   |   |   |   |   3 <= 0.62: chinese (2.0)
|   |   |   |   |   |   |   |   |   |   |   |   |   |   |   |   |   |   |   3 > 0.62: russian (2.0/1.0)
|   |   |   |   |   |   |   |   |   |   |   |   |   |   |   958 > 0.6
|   |   |   |   |   |   |   |   |   |   |   |   |   |   |   |   9 <= 0.5: greek (2.0/1.0)
|   |   |   |   |   |   |   |   |   |   |   |   |   |   |   |   9 > 0.5: spanish (2.0)
|   |   |   |   |   |   |   |   |   |   |   |   |   817 > 0.72: cajun_creole (2.0)
|   |   |   |   |   |   |   |   |   |   971 > 0.67
|   |   |   |   |   |   |   |   |   |   |   2 <= 0.36: cajun_creole (2.0)
|   |   |   |   |   |   |   |   |   |   |   2 > 0.36: british (2.0)
|   |   |   320 > 0.69
|   |   |   |   632 <= 0.52
|   |   |   |   |   175 <= 0.39: indian (2.0/1.0)
|   |   |   |   |   175 > 0.39: japanese (6.0/1.0)
|   |   |   |   632 > 0.52: chinese (6.0/1.0)
|   |   112 > 0.6
|   |   |   106 <= 0.56
|   |   |   |   42 <= 0.48
|   |   |   |   |   2 <= 0.44: korean (2.0/1.0)
|   |   |   |   |   2 > 0.44: russian (2.0/1.0)
|   |   |   |   42 > 0.48
|   |   |   |   |   174 <= 0.48: japanese (17.0)
|   |   |   |   |   174 > 0.48
|   |   |   |   |   |   738 <= 0.55: japanese (5.0)
|   |   |   |   |   |   738 > 0.55: chinese (11.0)
|   |   |   106 > 0.56: italian (4.0/1.0)
130 > 0.33
|   3 <= 0.54
|   |   320 <= 0.71
|   |   |   5 <= 0.49
|   |   |   |   433 <= 0.3
|   |   |   |   |   115 <= 0.6
|   |   |   |   |   |   20 <= 0.38
|   |   |   |   |   |   |   613 <= 0.33: vietnamese (6.0)
|   |   |   |   |   |   |   613 > 0.33: thai (3.0/1.0)
|   |   |   |   |   |   20 > 0.38: thai (29.0/1.0)
|   |   |   |   |   115 > 0.6: vietnamese (7.0)
|   |   |   |   433 > 0.3
|   |   |   |   |   325 <= 0.59
|   |   |   |   |   |   520 <= 0.51
|   |   |   |   |   |   |   512 <= 0.57
|   |   |   |   |   |   |   |   453 <= 0.5: italian (20.0)
|   |   |   |   |   |   |   |   453 > 0.5
|   |   |   |   |   |   |   |   |   422 <= 0.31: southern_us (3.0/1.0)
|   |   |   |   |   |   |   |   |   422 > 0.31
|   |   |   |   |   |   |   |   |   |   610 <= 0.53: french (2.0)
|   |   |   |   |   |   |   |   |   |   610 > 0.53
|   |   |   |   |   |   |   |   |   |   |   657 <= 0.57
|   |   |   |   |   |   |   |   |   |   |   |   82 <= 0.3: irish (2.0/1.0)
|   |   |   |   |   |   |   |   |   |   |   |   82 > 0.3: cajun_creole (44.0/1.0)
|   |   |   |   |   |   |   |   |   |   |   657 > 0.57: italian (2.0)
|   |   |   |   |   |   |   512 > 0.57
|   |   |   |   |   |   |   |   422 <= 0.42
|   |   |   |   |   |   |   |   |   1 <= 0.84: filipino (2.0/1.0)
|   |   |   |   |   |   |   |   |   1 > 0.84: chinese (2.0/1.0)
|   |   |   |   |   |   |   |   422 > 0.42
|   |   |   |   |   |   |   |   |   493 <= 0.49
|   |   |   |   |   |   |   |   |   |   101 <= 0.45: indian (3.0)
|   |   |   |   |   |   |   |   |   |   101 > 0.45: vietnamese (4.0/1.0)
|   |   |   |   |   |   |   |   |   493 > 0.49: brazilian (3.0)
|   |   |   |   |   |   520 > 0.51
|   |   |   |   |   |   |   436 <= 0.37
|   |   |   |   |   |   |   |   439 <= 0.47
|   |   |   |   |   |   |   |   |   434 <= 0.69
|   |   |   |   |   |   |   |   |   |   247 <= 0.36: french (3.0/1.0)
|   |   |   |   |   |   |   |   |   |   247 > 0.36
|   |   |   |   |   |   |   |   |   |   |   538 <= 0.44: mexican (4.0/1.0)
|   |   |   |   |   |   |   |   |   |   |   538 > 0.44
|   |   |   |   |   |   |   |   |   |   |   |   86 <= 0.44: irish (3.0/1.0)
|   |   |   |   |   |   |   |   |   |   |   |   86 > 0.44
|   |   |   |   |   |   |   |   |   |   |   |   |   896 <= 0.52: italian (14.0/1.0)
|   |   |   |   |   |   |   |   |   |   |   |   |   896 > 0.52: southern_us (5.0)
|   |   |   |   |   |   |   |   |   434 > 0.69
|   |   |   |   |   |   |   |   |   |   54 <= 0.5: chinese (6.0/1.0)
|   |   |   |   |   |   |   |   |   |   54 > 0.5: thai (4.0/1.0)
|   |   |   |   |   |   |   |   439 > 0.47
|   |   |   |   |   |   |   |   |   381 <= 0.43
|   |   |   |   |   |   |   |   |   |   1 <= 0.69: mexican (2.0)
|   |   |   |   |   |   |   |   |   |   1 > 0.69: vietnamese (2.0)
|   |   |   |   |   |   |   |   |   381 > 0.43: korean (40.0)
|   |   |   |   |   |   |   436 > 0.37
|   |   |   |   |   |   |   |   13 <= 0.33
|   |   |   |   |   |   |   |   |   387 <= 0.3
|   |   |   |   |   |   |   |   |   |   499 <= 0.44
|   |   |   |   |   |   |   |   |   |   |   101 <= 0.47: moroccan (4.0/1.0)
|   |   |   |   |   |   |   |   |   |   |   101 > 0.47: spanish (2.0/1.0)
|   |   |   |   |   |   |   |   |   |   499 > 0.44
|   |   |   |   |   |   |   |   |   |   |   503 <= 0.62: chinese (2.0)
|   |   |   |   |   |   |   |   |   |   |   503 > 0.62: southern_us (6.0)
|   |   |   |   |   |   |   |   |   387 > 0.3
|   |   |   |   |   |   |   |   |   |   596 <= 0.24
|   |   |   |   |   |   |   |   |   |   |   676 <= 0.53: indian (2.0/1.0)
|   |   |   |   |   |   |   |   |   |   |   676 > 0.53
|   |   |   |   |   |   |   |   |   |   |   |   590 <= 0.47: cajun_creole (5.0/1.0)
|   |   |   |   |   |   |   |   |   |   |   |   590 > 0.47: southern_us (4.0)
|   |   |   |   |   |   |   |   |   |   596 > 0.24
|   |   |   |   |   |   |   |   |   |   |   16 <= 0.57
|   |   |   |   |   |   |   |   |   |   |   |   655 <= 0.34
|   |   |   |   |   |   |   |   |   |   |   |   |   952 <= 0.37
|   |   |   |   |   |   |   |   |   |   |   |   |   |   112 <= 0.49: greek (3.0/2.0)
|   |   |   |   |   |   |   |   |   |   |   |   |   |   112 > 0.49: cajun_creole (4.0/1.0)
|   |   |   |   |   |   |   |   |   |   |   |   |   952 > 0.37
|   |   |   |   |   |   |   |   |   |   |   |   |   |   236 <= 0.47: french (3.0)
|   |   |   |   |   |   |   |   |   |   |   |   |   |   236 > 0.47: indian (3.0)
|   |   |   |   |   |   |   |   |   |   |   |   655 > 0.34
|   |   |   |   |   |   |   |   |   |   |   |   |   9 <= 0.56
|   |   |   |   |   |   |   |   |   |   |   |   |   |   806 <= 0.36
|   |   |   |   |   |   |   |   |   |   |   |   |   |   |   103 <= 0.5: korean (4.0)
|   |   |   |   |   |   |   |   |   |   |   |   |   |   |   103 > 0.5: brazilian (3.0/2.0)
|   |   |   |   |   |   |   |   |   |   |   |   |   |   806 > 0.36
|   |   |   |   |   |   |   |   |   |   |   |   |   |   |   11 <= 0.44
|   |   |   |   |   |   |   |   |   |   |   |   |   |   |   |   848 <= 0.35
|   |   |   |   |   |   |   |   |   |   |   |   |   |   |   |   |   518 <= 0.56: southern_us (4.0)
|   |   |   |   |   |   |   |   |   |   |   |   |   |   |   |   |   518 > 0.56
|   |   |   |   |   |   |   |   |   |   |   |   |   |   |   |   |   |   8 <= 0.4: indian (2.0/1.0)
|   |   |   |   |   |   |   |   |   |   |   |   |   |   |   |   |   |   8 > 0.4: vietnamese (3.0/2.0)
|   |   |   |   |   |   |   |   |   |   |   |   |   |   |   |   848 > 0.35
|   |   |   |   |   |   |   |   |   |   |   |   |   |   |   |   |   622 <= 0.7
|   |   |   |   |   |   |   |   |   |   |   |   |   |   |   |   |   |   85 <= 0.52
|   |   |   |   |   |   |   |   |   |   |   |   |   |   |   |   |   |   |   356 <= 0.3
|   |   |   |   |   |   |   |   |   |   |   |   |   |   |   |   |   |   |   |   20 <= 0.48: brazilian (2.0/1.0)
|   |   |   |   |   |   |   |   |   |   |   |   |   |   |   |   |   |   |   |   20 > 0.48: chinese (8.0)
|   |   |   |   |   |   |   |   |   |   |   |   |   |   |   |   |   |   |   356 > 0.3
|   |   |   |   |   |   |   |   |   |   |   |   |   |   |   |   |   |   |   |   101 <= 0.24
|   |   |   |   |   |   |   |   |   |   |   |   |   |   |   |   |   |   |   |   |   45 <= 0.6: cajun_creole (3.0/1.0)
|   |   |   |   |   |   |   |   |   |   |   |   |   |   |   |   |   |   |   |   |   45 > 0.6: vietnamese (2.0/1.0)
|   |   |   |   |   |   |   |   |   |   |   |   |   |   |   |   |   |   |   |   101 > 0.24
|   |   |   |   |   |   |   |   |   |   |   |   |   |   |   |   |   |   |   |   |   487 <= 0.33
|   |   |   |   |   |   |   |   |   |   |   |   |   |   |   |   |   |   |   |   |   |   508 <= 0.5: irish (2.0/1.0)
|   |   |   |   |   |   |   |   |   |   |   |   |   |   |   |   |   |   |   |   |   |   508 > 0.5: chinese (6.0)
|   |   |   |   |   |   |   |   |   |   |   |   |   |   |   |   |   |   |   |   |   487 > 0.33
|   |   |   |   |   |   |   |   |   |   |   |   |   |   |   |   |   |   |   |   |   |   34 <= 0.62
|   |   |   |   |   |   |   |   |   |   |   |   |   |   |   |   |   |   |   |   |   |   |   149 <= 0.63
|   |   |   |   |   |   |   |   |   |   |   |   |   |   |   |   |   |   |   |   |   |   |   |   172 <= 0.26: indian (2.0/1.0)
|   |   |   |   |   |   |   |   |   |   |   |   |   |   |   |   |   |   |   |   |   |   |   |   172 > 0.26
|   |   |   |   |   |   |   |   |   |   |   |   |   |   |   |   |   |   |   |   |   |   |   |   |   641 <= 0.42
|   |   |   |   |   |   |   |   |   |   |   |   |   |   |   |   |   |   |   |   |   |   |   |   |   |   458 <= 0.61
|   |   |   |   |   |   |   |   |   |   |   |   |   |   |   |   |   |   |   |   |   |   |   |   |   |   |   740 <= 0.34: japanese (2.0)
|   |   |   |   |   |   |   |   |   |   |   |   |   |   |   |   |   |   |   |   |   |   |   |   |   |   |   740 > 0.34
|   |   |   |   |   |   |   |   |   |   |   |   |   |   |   |   |   |   |   |   |   |   |   |   |   |   |   |   64 <= 0.62
|   |   |   |   |   |   |   |   |   |   |   |   |   |   |   |   |   |   |   |   |   |   |   |   |   |   |   |   |   167 <= 0.34: chinese (7.0)
|   |   |   |   |   |   |   |   |   |   |   |   |   |   |   |   |   |   |   |   |   |   |   |   |   |   |   |   |   167 > 0.34
|   |   |   |   |   |   |   |   |   |   |   |   |   |   |   |   |   |   |   |   |   |   |   |   |   |   |   |   |   |   739 <= 0.56
|   |   |   |   |   |   |   |   |   |   |   |   |   |   |   |   |   |   |   |   |   |   |   |   |   |   |   |   |   |   |   241 <= 0.53
|   |   |   |   |   |   |   |   |   |   |   |   |   |   |   |   |   |   |   |   |   |   |   |   |   |   |   |   |   |   |   |   107 <= 0.56
|   |   |   |   |   |   |   |   |   |   |   |   |   |   |   |   |   |   |   |   |   |   |   |   |   |   |   |   |   |   |   |   |   55 <= 0.43
|   |   |   |   |   |   |   |   |   |   |   |   |   |   |   |   |   |   |   |   |   |   |   |   |   |   |   |   |   |   |   |   |   |   29 <= 0.63
|   |   |   |   |   |   |   |   |   |   |   |   |   |   |   |   |   |   |   |   |   |   |   |   |   |   |   |   |   |   |   |   |   |   |   59 <= 0.52
|   |   |   |   |   |   |   |   |   |   |   |   |   |   |   |   |   |   |   |   |   |   |   |   |   |   |   |   |   |   |   |   |   |   |   |   12 <= 0.66: filipino (22.0)
|   |   |   |   |   |   |   |   |   |   |   |   |   |   |   |   |   |   |   |   |   |   |   |   |   |   |   |   |   |   |   |   |   |   |   |   12 > 0.66: chinese (2.0)
|   |   |   |   |   |   |   |   |   |   |   |   |   |   |   |   |   |   |   |   |   |   |   |   |   |   |   |   |   |   |   |   |   |   |   59 > 0.52: chinese (5.0)
|   |   |   |   |   |   |   |   |   |   |   |   |   |   |   |   |   |   |   |   |   |   |   |   |   |   |   |   |   |   |   |   |   |   29 > 0.63
|   |   |   |   |   |   |   |   |   |   |   |   |   |   |   |   |   |   |   |   |   |   |   |   |   |   |   |   |   |   |   |   |   |   |   615 <= 0.61: jamaican (7.0)
|   |   |   |   |   |   |   |   |   |   |   |   |   |   |   |   |   |   |   |   |   |   |   |   |   |   |   |   |   |   |   |   |   |   |   615 > 0.61: filipino (3.0)
|   |   |   |   |   |   |   |   |   |   |   |   |   |   |   |   |   |   |   |   |   |   |   |   |   |   |   |   |   |   |   |   |   55 > 0.43
|   |   |   |   |   |   |   |   |   |   |   |   |   |   |   |   |   |   |   |   |   |   |   |   |   |   |   |   |   |   |   |   |   |   884 <= 0.39: filipino (2.0)
|   |   |   |   |   |   |   |   |   |   |   |   |   |   |   |   |   |   |   |   |   |   |   |   |   |   |   |   |   |   |   |   |   |   884 > 0.39
|   |   |   |   |   |   |   |   |   |   |   |   |   |   |   |   |   |   |   |   |   |   |   |   |   |   |   |   |   |   |   |   |   |   |   916 <= 0.46: jamaican (2.0)
|   |   |   |   |   |   |   |   |   |   |   |   |   |   |   |   |   |   |   |   |   |   |   |   |   |   |   |   |   |   |   |   |   |   |   916 > 0.46
|   |   |   |   |   |   |   |   |   |   |   |   |   |   |   |   |   |   |   |   |   |   |   |   |   |   |   |   |   |   |   |   |   |   |   |   9 <= 0.48
|   |   |   |   |   |   |   |   |   |   |   |   |   |   |   |   |   |   |   |   |   |   |   |   |   |   |   |   |   |   |   |   |   |   |   |   |   649 <= 0.52: chinese (5.0)
|   |   |   |   |   |   |   |   |   |   |   |   |   |   |   |   |   |   |   |   |   |   |   |   |   |   |   |   |   |   |   |   |   |   |   |   |   649 > 0.52: korean (6.0)
|   |   |   |   |   |   |   |   |   |   |   |   |   |   |   |   |   |   |   |   |   |   |   |   |   |   |   |   |   |   |   |   |   |   |   |   9 > 0.48: southern_us (7.0/1.0)
|   |   |   |   |   |   |   |   |   |   |   |   |   |   |   |   |   |   |   |   |   |   |   |   |   |   |   |   |   |   |   |   107 > 0.56: jamaican (8.0)
|   |   |   |   |   |   |   |   |   |   |   |   |   |   |   |   |   |   |   |   |   |   |   |   |   |   |   |   |   |   |   241 > 0.53
|   |   |   |   |   |   |   |   |   |   |   |   |   |   |   |   |   |   |   |   |   |   |   |   |   |   |   |   |   |   |   |   103 <= 0.44: thai (3.0)
|   |   |   |   |   |   |   |   |   |   |   |   |   |   |   |   |   |   |   |   |   |   |   |   |   |   |   |   |   |   |   |   103 > 0.44: jamaican (2.0)
|   |   |   |   |   |   |   |   |   |   |   |   |   |   |   |   |   |   |   |   |   |   |   |   |   |   |   |   |   |   739 > 0.56: thai (3.0)
|   |   |   |   |   |   |   |   |   |   |   |   |   |   |   |   |   |   |   |   |   |   |   |   |   |   |   |   64 > 0.62
|   |   |   |   |   |   |   |   |   |   |   |   |   |   |   |   |   |   |   |   |   |   |   |   |   |   |   |   |   1 <= 0.43: jamaican (2.0)
|   |   |   |   |   |   |   |   |   |   |   |   |   |   |   |   |   |   |   |   |   |   |   |   |   |   |   |   |   1 > 0.43: japanese (2.0)
|   |   |   |   |   |   |   |   |   |   |   |   |   |   |   |   |   |   |   |   |   |   |   |   |   |   458 > 0.61: thai (5.0/1.0)
|   |   |   |   |   |   |   |   |   |   |   |   |   |   |   |   |   |   |   |   |   |   |   |   |   641 > 0.42: thai (5.0)
|   |   |   |   |   |   |   |   |   |   |   |   |   |   |   |   |   |   |   |   |   |   |   149 > 0.63
|   |   |   |   |   |   |   |   |   |   |   |   |   |   |   |   |   |   |   |   |   |   |   |   1 <= 0.37: southern_us (2.0)
|   |   |   |   |   |   |   |   |   |   |   |   |   |   |   |   |   |   |   |   |   |   |   |   1 > 0.37: vietnamese (2.0/1.0)
|   |   |   |   |   |   |   |   |   |   |   |   |   |   |   |   |   |   |   |   |   |   34 > 0.62
|   |   |   |   |   |   |   |   |   |   |   |   |   |   |   |   |   |   |   |   |   |   |   102 <= 0.49: chinese (2.0)
|   |   |   |   |   |   |   |   |   |   |   |   |   |   |   |   |   |   |   |   |   |   |   102 > 0.49
|   |   |   |   |   |   |   |   |   |   |   |   |   |   |   |   |   |   |   |   |   |   |   |   15 <= 0.64: indian (2.0)
|   |   |   |   |   |   |   |   |   |   |   |   |   |   |   |   |   |   |   |   |   |   |   |   15 > 0.64: vietnamese (2.0/1.0)
|   |   |   |   |   |   |   |   |   |   |   |   |   |   |   |   |   |   85 > 0.52
|   |   |   |   |   |   |   |   |   |   |   |   |   |   |   |   |   |   |   293 <= 0.45: chinese (3.0/2.0)
|   |   |   |   |   |   |   |   |   |   |   |   |   |   |   |   |   |   |   293 > 0.45
|   |   |   |   |   |   |   |   |   |   |   |   |   |   |   |   |   |   |   |   1 <= 0.36: cajun_creole (2.0/1.0)
|   |   |   |   |   |   |   |   |   |   |   |   |   |   |   |   |   |   |   |   1 > 0.36: filipino (2.0/1.0)
|   |   |   |   |   |   |   |   |   |   |   |   |   |   |   |   |   622 > 0.7
|   |   |   |   |   |   |   |   |   |   |   |   |   |   |   |   |   |   15 <= 0.61: indian (2.0)
|   |   |   |   |   |   |   |   |   |   |   |   |   |   |   |   |   |   15 > 0.61: vietnamese (3.0/2.0)
|   |   |   |   |   |   |   |   |   |   |   |   |   |   |   11 > 0.44
|   |   |   |   |   |   |   |   |   |   |   |   |   |   |   |   926 <= 0.45
|   |   |   |   |   |   |   |   |   |   |   |   |   |   |   |   |   668 <= 0.55: moroccan (6.0/1.0)
|   |   |   |   |   |   |   |   |   |   |   |   |   |   |   |   |   668 > 0.55: japanese (2.0)
|   |   |   |   |   |   |   |   |   |   |   |   |   |   |   |   926 > 0.45
|   |   |   |   |   |   |   |   |   |   |   |   |   |   |   |   |   565 <= 0.45
|   |   |   |   |   |   |   |   |   |   |   |   |   |   |   |   |   |   341 <= 0.55
|   |   |   |   |   |   |   |   |   |   |   |   |   |   |   |   |   |   |   88 <= 0.44
|   |   |   |   |   |   |   |   |   |   |   |   |   |   |   |   |   |   |   |   159 <= 0.52
|   |   |   |   |   |   |   |   |   |   |   |   |   |   |   |   |   |   |   |   |   149 <= 0.57
|   |   |   |   |   |   |   |   |   |   |   |   |   |   |   |   |   |   |   |   |   |   14 <= 0.6: mexican (8.0)
|   |   |   |   |   |   |   |   |   |   |   |   |   |   |   |   |   |   |   |   |   |   14 > 0.6: jamaican (3.0)
|   |   |   |   |   |   |   |   |   |   |   |   |   |   |   |   |   |   |   |   |   149 > 0.57: southern_us (7.0/1.0)
|   |   |   |   |   |   |   |   |   |   |   |   |   |   |   |   |   |   |   |   159 > 0.52: indian (6.0/1.0)
|   |   |   |   |   |   |   |   |   |   |   |   |   |   |   |   |   |   |   88 > 0.44: cajun_creole (6.0/1.0)
|   |   |   |   |   |   |   |   |   |   |   |   |   |   |   |   |   |   341 > 0.55: italian (2.0)
|   |   |   |   |   |   |   |   |   |   |   |   |   |   |   |   |   565 > 0.45: russian (2.0/1.0)
|   |   |   |   |   |   |   |   |   |   |   |   |   9 > 0.56
|   |   |   |   |   |   |   |   |   |   |   |   |   |   935 <= 0.59
|   |   |   |   |   |   |   |   |   |   |   |   |   |   |   745 <= 0.65
|   |   |   |   |   |   |   |   |   |   |   |   |   |   |   |   413 <= 0.74
|   |   |   |   |   |   |   |   |   |   |   |   |   |   |   |   |   8 <= 0.18: chinese (2.0)
|   |   |   |   |   |   |   |   |   |   |   |   |   |   |   |   |   8 > 0.18
|   |   |   |   |   |   |   |   |   |   |   |   |   |   |   |   |   |   71 <= 0.2: jamaican (3.0)
|   |   |   |   |   |   |   |   |   |   |   |   |   |   |   |   |   |   71 > 0.2
|   |   |   |   |   |   |   |   |   |   |   |   |   |   |   |   |   |   |   46 <= 0.31: brazilian (3.0/1.0)
|   |   |   |   |   |   |   |   |   |   |   |   |   |   |   |   |   |   |   46 > 0.31
|   |   |   |   |   |   |   |   |   |   |   |   |   |   |   |   |   |   |   |   905 <= 0.38: brazilian (3.0/2.0)
|   |   |   |   |   |   |   |   |   |   |   |   |   |   |   |   |   |   |   |   905 > 0.38
|   |   |   |   |   |   |   |   |   |   |   |   |   |   |   |   |   |   |   |   |   86 <= 0.41: southern_us (3.0/1.0)
|   |   |   |   |   |   |   |   |   |   |   |   |   |   |   |   |   |   |   |   |   86 > 0.41
|   |   |   |   |   |   |   |   |   |   |   |   |   |   |   |   |   |   |   |   |   |   467 <= 0.58
|   |   |   |   |   |   |   |   |   |   |   |   |   |   |   |   |   |   |   |   |   |   |   21 <= 0.61
|   |   |   |   |   |   |   |   |   |   |   |   |   |   |   |   |   |   |   |   |   |   |   |   71 <= 0.62
|   |   |   |   |   |   |   |   |   |   |   |   |   |   |   |   |   |   |   |   |   |   |   |   |   171 <= 0.61
|   |   |   |   |   |   |   |   |   |   |   |   |   |   |   |   |   |   |   |   |   |   |   |   |   |   646 <= 0.38: filipino (3.0/1.0)
|   |   |   |   |   |   |   |   |   |   |   |   |   |   |   |   |   |   |   |   |   |   |   |   |   |   646 > 0.38
|   |   |   |   |   |   |   |   |   |   |   |   |   |   |   |   |   |   |   |   |   |   |   |   |   |   |   874 <= 0.48
|   |   |   |   |   |   |   |   |   |   |   |   |   |   |   |   |   |   |   |   |   |   |   |   |   |   |   |   971 <= 0.54
|   |   |   |   |   |   |   |   |   |   |   |   |   |   |   |   |   |   |   |   |   |   |   |   |   |   |   |   |   261 <= 0.29: mexican (2.0)
|   |   |   |   |   |   |   |   |   |   |   |   |   |   |   |   |   |   |   |   |   |   |   |   |   |   |   |   |   261 > 0.29
|   |   |   |   |   |   |   |   |   |   |   |   |   |   |   |   |   |   |   |   |   |   |   |   |   |   |   |   |   |   989 <= 0.51: moroccan (2.0/1.0)
|   |   |   |   |   |   |   |   |   |   |   |   |   |   |   |   |   |   |   |   |   |   |   |   |   |   |   |   |   |   989 > 0.51
|   |   |   |   |   |   |   |   |   |   |   |   |   |   |   |   |   |   |   |   |   |   |   |   |   |   |   |   |   |   |   461 <= 0.52: moroccan (2.0/1.0)
|   |   |   |   |   |   |   |   |   |   |   |   |   |   |   |   |   |   |   |   |   |   |   |   |   |   |   |   |   |   |   461 > 0.52: indian (66.0/1.0)
|   |   |   |   |   |   |   |   |   |   |   |   |   |   |   |   |   |   |   |   |   |   |   |   |   |   |   |   971 > 0.54: mexican (2.0)
|   |   |   |   |   |   |   |   |   |   |   |   |   |   |   |   |   |   |   |   |   |   |   |   |   |   |   874 > 0.48: mexican (3.0)
|   |   |   |   |   |   |   |   |   |   |   |   |   |   |   |   |   |   |   |   |   |   |   |   |   171 > 0.61: brazilian (2.0/1.0)
|   |   |   |   |   |   |   |   |   |   |   |   |   |   |   |   |   |   |   |   |   |   |   |   71 > 0.62: moroccan (4.0)
|   |   |   |   |   |   |   |   |   |   |   |   |   |   |   |   |   |   |   |   |   |   |   21 > 0.61: mexican (10.0)
|   |   |   |   |   |   |   |   |   |   |   |   |   |   |   |   |   |   |   |   |   |   467 > 0.58: southern_us (3.0/1.0)
|   |   |   |   |   |   |   |   |   |   |   |   |   |   |   |   413 > 0.74: cajun_creole (2.0/1.0)
|   |   |   |   |   |   |   |   |   |   |   |   |   |   |   745 > 0.65
|   |   |   |   |   |   |   |   |   |   |   |   |   |   |   |   1 <= 0.32: cajun_creole (2.0/1.0)
|   |   |   |   |   |   |   |   |   |   |   |   |   |   |   |   1 > 0.32: thai (2.0/1.0)
|   |   |   |   |   |   |   |   |   |   |   |   |   |   935 > 0.59: british (3.0/1.0)
|   |   |   |   |   |   |   |   |   |   |   16 > 0.57
|   |   |   |   |   |   |   |   |   |   |   |   159 <= 0.76
|   |   |   |   |   |   |   |   |   |   |   |   |   563 <= 0.57
|   |   |   |   |   |   |   |   |   |   |   |   |   |   9 <= 0.48
|   |   |   |   |   |   |   |   |   |   |   |   |   |   |   14 <= 0.55
|   |   |   |   |   |   |   |   |   |   |   |   |   |   |   |   677 <= 0.42: brazilian (2.0/1.0)
|   |   |   |   |   |   |   |   |   |   |   |   |   |   |   |   677 > 0.42
|   |   |   |   |   |   |   |   |   |   |   |   |   |   |   |   |   978 <= 0.52
|   |   |   |   |   |   |   |   |   |   |   |   |   |   |   |   |   |   277 <= 0.38: korean (3.0/1.0)
|   |   |   |   |   |   |   |   |   |   |   |   |   |   |   |   |   |   277 > 0.38
|   |   |   |   |   |   |   |   |   |   |   |   |   |   |   |   |   |   |   506 <= 0.61
|   |   |   |   |   |   |   |   |   |   |   |   |   |   |   |   |   |   |   |   750 <= 0.62
|   |   |   |   |   |   |   |   |   |   |   |   |   |   |   |   |   |   |   |   |   717 <= 0.55: thai (2.0)
|   |   |   |   |   |   |   |   |   |   |   |   |   |   |   |   |   |   |   |   |   717 > 0.55
|   |   |   |   |   |   |   |   |   |   |   |   |   |   |   |   |   |   |   |   |   |   922 <= 0.39
|   |   |   |   |   |   |   |   |   |   |   |   |   |   |   |   |   |   |   |   |   |   |   1 <= 0.56: filipino (2.0)
|   |   |   |   |   |   |   |   |   |   |   |   |   |   |   |   |   |   |   |   |   |   |   1 > 0.56: korean (2.0)
|   |   |   |   |   |   |   |   |   |   |   |   |   |   |   |   |   |   |   |   |   |   922 > 0.39
|   |   |   |   |   |   |   |   |   |   |   |   |   |   |   |   |   |   |   |   |   |   |   29 <= 0.4
|   |   |   |   |   |   |   |   |   |   |   |   |   |   |   |   |   |   |   |   |   |   |   |   6 <= 0.34: japanese (2.0)
|   |   |   |   |   |   |   |   |   |   |   |   |   |   |   |   |   |   |   |   |   |   |   |   6 > 0.34: korean (3.0/2.0)
|   |   |   |   |   |   |   |   |   |   |   |   |   |   |   |   |   |   |   |   |   |   |   29 > 0.4
|   |   |   |   |   |   |   |   |   |   |   |   |   |   |   |   |   |   |   |   |   |   |   |   500 <= 0.52
|   |   |   |   |   |   |   |   |   |   |   |   |   |   |   |   |   |   |   |   |   |   |   |   |   16 <= 0.58: filipino (2.0)
|   |   |   |   |   |   |   |   |   |   |   |   |   |   |   |   |   |   |   |   |   |   |   |   |   16 > 0.58
|   |   |   |   |   |   |   |   |   |   |   |   |   |   |   |   |   |   |   |   |   |   |   |   |   |   81 <= 0.33: filipino (2.0)
|   |   |   |   |   |   |   |   |   |   |   |   |   |   |   |   |   |   |   |   |   |   |   |   |   |   81 > 0.33: chinese (30.0)
|   |   |   |   |   |   |   |   |   |   |   |   |   |   |   |   |   |   |   |   |   |   |   |   500 > 0.52: filipino (3.0/1.0)
|   |   |   |   |   |   |   |   |   |   |   |   |   |   |   |   |   |   |   |   750 > 0.62: japanese (2.0)
|   |   |   |   |   |   |   |   |   |   |   |   |   |   |   |   |   |   |   506 > 0.61: japanese (5.0)
|   |   |   |   |   |   |   |   |   |   |   |   |   |   |   |   |   978 > 0.52: jamaican (2.0/1.0)
|   |   |   |   |   |   |   |   |   |   |   |   |   |   |   14 > 0.55
|   |   |   |   |   |   |   |   |   |   |   |   |   |   |   |   474 <= 0.57: french (3.0/1.0)
|   |   |   |   |   |   |   |   |   |   |   |   |   |   |   |   474 > 0.57
|   |   |   |   |   |   |   |   |   |   |   |   |   |   |   |   |   255 <= 0.46: thai (2.0)
|   |   |   |   |   |   |   |   |   |   |   |   |   |   |   |   |   255 > 0.46
|   |   |   |   |   |   |   |   |   |   |   |   |   |   |   |   |   |   113 <= 0.64: indian (24.0/1.0)
|   |   |   |   |   |   |   |   |   |   |   |   |   |   |   |   |   |   113 > 0.64: japanese (2.0)
|   |   |   |   |   |   |   |   |   |   |   |   |   |   9 > 0.48
|   |   |   |   |   |   |   |   |   |   |   |   |   |   |   155 <= 0.23: vietnamese (4.0/1.0)
|   |   |   |   |   |   |   |   |   |   |   |   |   |   |   155 > 0.23
|   |   |   |   |   |   |   |   |   |   |   |   |   |   |   |   569 <= 0.57
|   |   |   |   |   |   |   |   |   |   |   |   |   |   |   |   |   686 <= 0.65
|   |   |   |   |   |   |   |   |   |   |   |   |   |   |   |   |   |   579 <= 0.61
|   |   |   |   |   |   |   |   |   |   |   |   |   |   |   |   |   |   |   62 <= 0.67
|   |   |   |   |   |   |   |   |   |   |   |   |   |   |   |   |   |   |   |   289 <= 0.2
|   |   |   |   |   |   |   |   |   |   |   |   |   |   |   |   |   |   |   |   |   473 <= 0.53: japanese (6.0)
|   |   |   |   |   |   |   |   |   |   |   |   |   |   |   |   |   |   |   |   |   473 > 0.53: indian (2.0)
|   |   |   |   |   |   |   |   |   |   |   |   |   |   |   |   |   |   |   |   289 > 0.2
|   |   |   |   |   |   |   |   |   |   |   |   |   |   |   |   |   |   |   |   |   153 <= 0.43
|   |   |   |   |   |   |   |   |   |   |   |   |   |   |   |   |   |   |   |   |   |   1 <= 0.4: indian (2.0/1.0)
|   |   |   |   |   |   |   |   |   |   |   |   |   |   |   |   |   |   |   |   |   |   1 > 0.4: japanese (2.0)
|   |   |   |   |   |   |   |   |   |   |   |   |   |   |   |   |   |   |   |   |   153 > 0.43
|   |   |   |   |   |   |   |   |   |   |   |   |   |   |   |   |   |   |   |   |   |   480 <= 0.62
|   |   |   |   |   |   |   |   |   |   |   |   |   |   |   |   |   |   |   |   |   |   |   682 <= 0.27
|   |   |   |   |   |   |   |   |   |   |   |   |   |   |   |   |   |   |   |   |   |   |   |   24 <= 0.57: indian (5.0)
|   |   |   |   |   |   |   |   |   |   |   |   |   |   |   |   |   |   |   |   |   |   |   |   24 > 0.57: filipino (2.0)
|   |   |   |   |   |   |   |   |   |   |   |   |   |   |   |   |   |   |   |   |   |   |   682 > 0.27
|   |   |   |   |   |   |   |   |   |   |   |   |   |   |   |   |   |   |   |   |   |   |   |   8 <= 0.27
|   |   |   |   |   |   |   |   |   |   |   |   |   |   |   |   |   |   |   |   |   |   |   |   |   710 <= 0.52
|   |   |   |   |   |   |   |   |   |   |   |   |   |   |   |   |   |   |   |   |   |   |   |   |   |   24 <= 0.47: japanese (3.0/1.0)
|   |   |   |   |   |   |   |   |   |   |   |   |   |   |   |   |   |   |   |   |   |   |   |   |   |   24 > 0.47: indian (16.0)
|   |   |   |   |   |   |   |   |   |   |   |   |   |   |   |   |   |   |   |   |   |   |   |   |   710 > 0.52: japanese (4.0)
|   |   |   |   |   |   |   |   |   |   |   |   |   |   |   |   |   |   |   |   |   |   |   |   8 > 0.27
|   |   |   |   |   |   |   |   |   |   |   |   |   |   |   |   |   |   |   |   |   |   |   |   |   145 <= 0.67
|   |   |   |   |   |   |   |   |   |   |   |   |   |   |   |   |   |   |   |   |   |   |   |   |   |   954 <= 0.48: indian (394.0/13.0)
|   |   |   |   |   |   |   |   |   |   |   |   |   |   |   |   |   |   |   |   |   |   |   |   |   |   954 > 0.48
|   |   |   |   |   |   |   |   |   |   |   |   |   |   |   |   |   |   |   |   |   |   |   |   |   |   |   305 <= 0.31: japanese (3.0)
|   |   |   |   |   |   |   |   |   |   |   |   |   |   |   |   |   |   |   |   |   |   |   |   |   |   |   305 > 0.31
|   |   |   |   |   |   |   |   |   |   |   |   |   |   |   |   |   |   |   |   |   |   |   |   |   |   |   |   111 <= 0.55
|   |   |   |   |   |   |   |   |   |   |   |   |   |   |   |   |   |   |   |   |   |   |   |   |   |   |   |   |   134 <= 0.46
|   |   |   |   |   |   |   |   |   |   |   |   |   |   |   |   |   |   |   |   |   |   |   |   |   |   |   |   |   |   696 <= 0.3
|   |   |   |   |   |   |   |   |   |   |   |   |   |   |   |   |   |   |   |   |   |   |   |   |   |   |   |   |   |   |   501 <= 0.47: japanese (3.0)
|   |   |   |   |   |   |   |   |   |   |   |   |   |   |   |   |   |   |   |   |   |   |   |   |   |   |   |   |   |   |   501 > 0.47: indian (14.0)
|   |   |   |   |   |   |   |   |   |   |   |   |   |   |   |   |   |   |   |   |   |   |   |   |   |   |   |   |   |   696 > 0.3: indian (224.0/8.0)
|   |   |   |   |   |   |   |   |   |   |   |   |   |   |   |   |   |   |   |   |   |   |   |   |   |   |   |   |   134 > 0.46
|   |   |   |   |   |   |   |   |   |   |   |   |   |   |   |   |   |   |   |   |   |   |   |   |   |   |   |   |   |   10 <= 0.71: indian (4.0/2.0)
|   |   |   |   |   |   |   |   |   |   |   |   |   |   |   |   |   |   |   |   |   |   |   |   |   |   |   |   |   |   10 > 0.71: japanese (3.0)
|   |   |   |   |   |   |   |   |   |   |   |   |   |   |   |   |   |   |   |   |   |   |   |   |   |   |   |   111 > 0.55
|   |   |   |   |   |   |   |   |   |   |   |   |   |   |   |   |   |   |   |   |   |   |   |   |   |   |   |   |   478 <= 0.59: indian (5.0)
|   |   |   |   |   |   |   |   |   |   |   |   |   |   |   |   |   |   |   |   |   |   |   |   |   |   |   |   |   478 > 0.59: japanese (5.0)
|   |   |   |   |   |   |   |   |   |   |   |   |   |   |   |   |   |   |   |   |   |   |   |   |   145 > 0.67
|   |   |   |   |   |   |   |   |   |   |   |   |   |   |   |   |   |   |   |   |   |   |   |   |   |   2 <= 0.43: indian (2.0)
|   |   |   |   |   |   |   |   |   |   |   |   |   |   |   |   |   |   |   |   |   |   |   |   |   |   2 > 0.43: japanese (2.0)
|   |   |   |   |   |   |   |   |   |   |   |   |   |   |   |   |   |   |   |   |   |   480 > 0.62
|   |   |   |   |   |   |   |   |   |   |   |   |   |   |   |   |   |   |   |   |   |   |   13 <= 0.3: chinese (2.0/1.0)
|   |   |   |   |   |   |   |   |   |   |   |   |   |   |   |   |   |   |   |   |   |   |   13 > 0.3: indian (2.0)
|   |   |   |   |   |   |   |   |   |   |   |   |   |   |   |   |   |   |   62 > 0.67
|   |   |   |   |   |   |   |   |   |   |   |   |   |   |   |   |   |   |   |   40 <= 0.5: indian (3.0/1.0)
|   |   |   |   |   |   |   |   |   |   |   |   |   |   |   |   |   |   |   |   40 > 0.5: thai (2.0)
|   |   |   |   |   |   |   |   |   |   |   |   |   |   |   |   |   |   579 > 0.61
|   |   |   |   |   |   |   |   |   |   |   |   |   |   |   |   |   |   |   512 <= 0.48: indian (2.0/1.0)
|   |   |   |   |   |   |   |   |   |   |   |   |   |   |   |   |   |   |   512 > 0.48: japanese (5.0)
|   |   |   |   |   |   |   |   |   |   |   |   |   |   |   |   |   686 > 0.65
|   |   |   |   |   |   |   |   |   |   |   |   |   |   |   |   |   |   308 <= 0.48
|   |   |   |   |   |   |   |   |   |   |   |   |   |   |   |   |   |   |   1 <= 0.52: filipino (2.0/1.0)
|   |   |   |   |   |   |   |   |   |   |   |   |   |   |   |   |   |   |   1 > 0.52: indian (2.0)
|   |   |   |   |   |   |   |   |   |   |   |   |   |   |   |   |   |   308 > 0.48: thai (3.0)
|   |   |   |   |   |   |   |   |   |   |   |   |   |   |   |   569 > 0.57
|   |   |   |   |   |   |   |   |   |   |   |   |   |   |   |   |   105 <= 0.44: jamaican (2.0/1.0)
|   |   |   |   |   |   |   |   |   |   |   |   |   |   |   |   |   105 > 0.44: japanese (4.0/2.0)
|   |   |   |   |   |   |   |   |   |   |   |   |   563 > 0.57
|   |   |   |   |   |   |   |   |   |   |   |   |   |   219 <= 0.48: moroccan (2.0)
|   |   |   |   |   |   |   |   |   |   |   |   |   |   219 > 0.48
|   |   |   |   |   |   |   |   |   |   |   |   |   |   |   1 <= 0.41: jamaican (2.0)
|   |   |   |   |   |   |   |   |   |   |   |   |   |   |   1 > 0.41: indian (2.0/1.0)
|   |   |   |   |   |   |   |   |   |   |   |   159 > 0.76
|   |   |   |   |   |   |   |   |   |   |   |   |   7 <= 0.74: indian (2.0/1.0)
|   |   |   |   |   |   |   |   |   |   |   |   |   7 > 0.74: french (3.0)
|   |   |   |   |   |   |   |   13 > 0.33
|   |   |   |   |   |   |   |   |   464 <= 0.74
|   |   |   |   |   |   |   |   |   |   339 <= 0.37
|   |   |   |   |   |   |   |   |   |   |   4 <= 0.7
|   |   |   |   |   |   |   |   |   |   |   |   49 <= 0.67
|   |   |   |   |   |   |   |   |   |   |   |   |   405 <= 0.63
|   |   |   |   |   |   |   |   |   |   |   |   |   |   30 <= 0.43: vietnamese (3.0/2.0)
|   |   |   |   |   |   |   |   |   |   |   |   |   |   30 > 0.43
|   |   |   |   |   |   |   |   |   |   |   |   |   |   |   124 <= 0.74
|   |   |   |   |   |   |   |   |   |   |   |   |   |   |   |   408 <= 0.48
|   |   |   |   |   |   |   |   |   |   |   |   |   |   |   |   |   412 <= 0.5: chinese (4.0/1.0)
|   |   |   |   |   |   |   |   |   |   |   |   |   |   |   |   |   412 > 0.5
|   |   |   |   |   |   |   |   |   |   |   |   |   |   |   |   |   |   602 <= 0.36
|   |   |   |   |   |   |   |   |   |   |   |   |   |   |   |   |   |   |   777 <= 0.56: filipino (13.0)
|   |   |   |   |   |   |   |   |   |   |   |   |   |   |   |   |   |   |   777 > 0.56: korean (2.0)
|   |   |   |   |   |   |   |   |   |   |   |   |   |   |   |   |   |   602 > 0.36: korean (12.0/1.0)
|   |   |   |   |   |   |   |   |   |   |   |   |   |   |   |   408 > 0.48: chinese (5.0)
|   |   |   |   |   |   |   |   |   |   |   |   |   |   |   124 > 0.74: japanese (2.0/1.0)
|   |   |   |   |   |   |   |   |   |   |   |   |   405 > 0.63: vietnamese (3.0)
|   |   |   |   |   |   |   |   |   |   |   |   49 > 0.67: thai (2.0)
|   |   |   |   |   |   |   |   |   |   |   4 > 0.7
|   |   |   |   |   |   |   |   |   |   |   |   22 <= 0.54: cajun_creole (2.0)
|   |   |   |   |   |   |   |   |   |   |   |   22 > 0.54: italian (3.0)
|   |   |   |   |   |   |   |   |   |   339 > 0.37
|   |   |   |   |   |   |   |   |   |   |   287 <= 0.54
|   |   |   |   |   |   |   |   |   |   |   |   372 <= 0.72
|   |   |   |   |   |   |   |   |   |   |   |   |   184 <= 0.66
|   |   |   |   |   |   |   |   |   |   |   |   |   |   223 <= 0.68
|   |   |   |   |   |   |   |   |   |   |   |   |   |   |   219 <= 0.27
|   |   |   |   |   |   |   |   |   |   |   |   |   |   |   |   207 <= 0.33: italian (11.0/1.0)
|   |   |   |   |   |   |   |   |   |   |   |   |   |   |   |   207 > 0.33
|   |   |   |   |   |   |   |   |   |   |   |   |   |   |   |   |   189 <= 0.34: korean (3.0)
|   |   |   |   |   |   |   |   |   |   |   |   |   |   |   |   |   189 > 0.34
|   |   |   |   |   |   |   |   |   |   |   |   |   |   |   |   |   |   211 <= 0.6
|   |   |   |   |   |   |   |   |   |   |   |   |   |   |   |   |   |   |   209 <= 0.41
|   |   |   |   |   |   |   |   |   |   |   |   |   |   |   |   |   |   |   |   10 <= 0.58: chinese (2.0)
|   |   |   |   |   |   |   |   |   |   |   |   |   |   |   |   |   |   |   |   10 > 0.58: southern_us (3.0/1.0)
|   |   |   |   |   |   |   |   |   |   |   |   |   |   |   |   |   |   |   209 > 0.41
|   |   |   |   |   |   |   |   |   |   |   |   |   |   |   |   |   |   |   |   45 <= 0.32: moroccan (3.0/2.0)
|   |   |   |   |   |   |   |   |   |   |   |   |   |   |   |   |   |   |   |   45 > 0.32
|   |   |   |   |   |   |   |   |   |   |   |   |   |   |   |   |   |   |   |   |   971 <= 0.4: greek (3.0)
|   |   |   |   |   |   |   |   |   |   |   |   |   |   |   |   |   |   |   |   |   971 > 0.4
|   |   |   |   |   |   |   |   |   |   |   |   |   |   |   |   |   |   |   |   |   |   641 <= 0.21: brazilian (2.0/1.0)
|   |   |   |   |   |   |   |   |   |   |   |   |   |   |   |   |   |   |   |   |   |   641 > 0.21: indian (54.0/2.0)
|   |   |   |   |   |   |   |   |   |   |   |   |   |   |   |   |   |   211 > 0.6
|   |   |   |   |   |   |   |   |   |   |   |   |   |   |   |   |   |   |   527 <= 0.54
|   |   |   |   |   |   |   |   |   |   |   |   |   |   |   |   |   |   |   |   233 <= 0.69: mexican (9.0)
|   |   |   |   |   |   |   |   |   |   |   |   |   |   |   |   |   |   |   |   233 > 0.69: cajun_creole (3.0)
|   |   |   |   |   |   |   |   |   |   |   |   |   |   |   |   |   |   |   527 > 0.54
|   |   |   |   |   |   |   |   |   |   |   |   |   |   |   |   |   |   |   |   10 <= 0.48: jamaican (3.0)
|   |   |   |   |   |   |   |   |   |   |   |   |   |   |   |   |   |   |   |   10 > 0.48: filipino (2.0/1.0)
|   |   |   |   |   |   |   |   |   |   |   |   |   |   |   219 > 0.27
|   |   |   |   |   |   |   |   |   |   |   |   |   |   |   |   195 <= 0.72
|   |   |   |   |   |   |   |   |   |   |   |   |   |   |   |   |   152 <= 0.3
|   |   |   |   |   |   |   |   |   |   |   |   |   |   |   |   |   |   874 <= 0.5
|   |   |   |   |   |   |   |   |   |   |   |   |   |   |   |   |   |   |   133 <= 0.62
|   |   |   |   |   |   |   |   |   |   |   |   |   |   |   |   |   |   |   |   439 <= 0.5
|   |   |   |   |   |   |   |   |   |   |   |   |   |   |   |   |   |   |   |   |   156 <= 0.71
|   |   |   |   |   |   |   |   |   |   |   |   |   |   |   |   |   |   |   |   |   |   713 <= 0.34: indian (2.0)
|   |   |   |   |   |   |   |   |   |   |   |   |   |   |   |   |   |   |   |   |   |   713 > 0.34
|   |   |   |   |   |   |   |   |   |   |   |   |   |   |   |   |   |   |   |   |   |   |   138 <= 0.67
|   |   |   |   |   |   |   |   |   |   |   |   |   |   |   |   |   |   |   |   |   |   |   |   79 <= 0.72
|   |   |   |   |   |   |   |   |   |   |   |   |   |   |   |   |   |   |   |   |   |   |   |   |   29 <= 0.57: italian (34.0/1.0)
|   |   |   |   |   |   |   |   |   |   |   |   |   |   |   |   |   |   |   |   |   |   |   |   |   29 > 0.57: british (2.0/1.0)
|   |   |   |   |   |   |   |   |   |   |   |   |   |   |   |   |   |   |   |   |   |   |   |   79 > 0.72: southern_us (3.0/1.0)
|   |   |   |   |   |   |   |   |   |   |   |   |   |   |   |   |   |   |   |   |   |   |   138 > 0.67: french (11.0/1.0)
|   |   |   |   |   |   |   |   |   |   |   |   |   |   |   |   |   |   |   |   |   156 > 0.71
|   |   |   |   |   |   |   |   |   |   |   |   |   |   |   |   |   |   |   |   |   |   16 <= 0.51
|   |   |   |   |   |   |   |   |   |   |   |   |   |   |   |   |   |   |   |   |   |   |   523 <= 0.36: french (3.0)
|   |   |   |   |   |   |   |   |   |   |   |   |   |   |   |   |   |   |   |   |   |   |   523 > 0.36: cajun_creole (8.0/1.0)
|   |   |   |   |   |   |   |   |   |   |   |   |   |   |   |   |   |   |   |   |   |   16 > 0.51: indian (8.0/2.0)
|   |   |   |   |   |   |   |   |   |   |   |   |   |   |   |   |   |   |   |   439 > 0.5: spanish (3.0/1.0)
|   |   |   |   |   |   |   |   |   |   |   |   |   |   |   |   |   |   |   133 > 0.62
|   |   |   |   |   |   |   |   |   |   |   |   |   |   |   |   |   |   |   |   764 <= 0.46
|   |   |   |   |   |   |   |   |   |   |   |   |   |   |   |   |   |   |   |   |   14 <= 0.47: cajun_creole (2.0/1.0)
|   |   |   |   |   |   |   |   |   |   |   |   |   |   |   |   |   |   |   |   |   14 > 0.47: jamaican (3.0)
|   |   |   |   |   |   |   |   |   |   |   |   |   |   |   |   |   |   |   |   764 > 0.46: mexican (4.0/1.0)
|   |   |   |   |   |   |   |   |   |   |   |   |   |   |   |   |   |   874 > 0.5
|   |   |   |   |   |   |   |   |   |   |   |   |   |   |   |   |   |   |   125 <= 0.56: cajun_creole (2.0)
|   |   |   |   |   |   |   |   |   |   |   |   |   |   |   |   |   |   |   125 > 0.56: brazilian (3.0/1.0)
|   |   |   |   |   |   |   |   |   |   |   |   |   |   |   |   |   152 > 0.3
|   |   |   |   |   |   |   |   |   |   |   |   |   |   |   |   |   |   790 <= 0.78
|   |   |   |   |   |   |   |   |   |   |   |   |   |   |   |   |   |   |   31 <= 0.49
|   |   |   |   |   |   |   |   |   |   |   |   |   |   |   |   |   |   |   |   142 <= 0.27
|   |   |   |   |   |   |   |   |   |   |   |   |   |   |   |   |   |   |   |   |   961 <= 0.57: vietnamese (3.0/1.0)
|   |   |   |   |   |   |   |   |   |   |   |   |   |   |   |   |   |   |   |   |   961 > 0.57: southern_us (11.0)
|   |   |   |   |   |   |   |   |   |   |   |   |   |   |   |   |   |   |   |   142 > 0.27
|   |   |   |   |   |   |   |   |   |   |   |   |   |   |   |   |   |   |   |   |   28 <= 0.37
|   |   |   |   |   |   |   |   |   |   |   |   |   |   |   |   |   |   |   |   |   |   1 <= 0.4
|   |   |   |   |   |   |   |   |   |   |   |   |   |   |   |   |   |   |   |   |   |   |   552 <= 0.49
|   |   |   |   |   |   |   |   |   |   |   |   |   |   |   |   |   |   |   |   |   |   |   |   64 <= 0.47
|   |   |   |   |   |   |   |   |   |   |   |   |   |   |   |   |   |   |   |   |   |   |   |   |   990 <= 0.52: mexican (8.0)
|   |   |   |   |   |   |   |   |   |   |   |   |   |   |   |   |   |   |   |   |   |   |   |   |   990 > 0.52
|   |   |   |   |   |   |   |   |   |   |   |   |   |   |   |   |   |   |   |   |   |   |   |   |   |   1 <= 0.33: indian (2.0/1.0)
|   |   |   |   |   |   |   |   |   |   |   |   |   |   |   |   |   |   |   |   |   |   |   |   |   |   1 > 0.33: french (2.0)
|   |   |   |   |   |   |   |   |   |   |   |   |   |   |   |   |   |   |   |   |   |   |   |   64 > 0.47
|   |   |   |   |   |   |   |   |   |   |   |   |   |   |   |   |   |   |   |   |   |   |   |   |   312 <= 0.59
|   |   |   |   |   |   |   |   |   |   |   |   |   |   |   |   |   |   |   |   |   |   |   |   |   |   443 <= 0.45: jamaican (6.0)
|   |   |   |   |   |   |   |   |   |   |   |   |   |   |   |   |   |   |   |   |   |   |   |   |   |   443 > 0.45: filipino (12.0/1.0)
|   |   |   |   |   |   |   |   |   |   |   |   |   |   |   |   |   |   |   |   |   |   |   |   |   312 > 0.59
|   |   |   |   |   |   |   |   |   |   |   |   |   |   |   |   |   |   |   |   |   |   |   |   |   |   40 <= 0.37: indian (3.0/1.0)
|   |   |   |   |   |   |   |   |   |   |   |   |   |   |   |   |   |   |   |   |   |   |   |   |   |   40 > 0.37: thai (2.0/1.0)
|   |   |   |   |   |   |   |   |   |   |   |   |   |   |   |   |   |   |   |   |   |   |   552 > 0.49: moroccan (3.0/1.0)
|   |   |   |   |   |   |   |   |   |   |   |   |   |   |   |   |   |   |   |   |   |   1 > 0.4
|   |   |   |   |   |   |   |   |   |   |   |   |   |   |   |   |   |   |   |   |   |   |   19 <= 0.36
|   |   |   |   |   |   |   |   |   |   |   |   |   |   |   |   |   |   |   |   |   |   |   |   888 <= 0.46
|   |   |   |   |   |   |   |   |   |   |   |   |   |   |   |   |   |   |   |   |   |   |   |   |   6 <= 0.38: jamaican (2.0/1.0)
|   |   |   |   |   |   |   |   |   |   |   |   |   |   |   |   |   |   |   |   |   |   |   |   |   6 > 0.38
|   |   |   |   |   |   |   |   |   |   |   |   |   |   |   |   |   |   |   |   |   |   |   |   |   |   10 <= 0.6: southern_us (2.0)
|   |   |   |   |   |   |   |   |   |   |   |   |   |   |   |   |   |   |   |   |   |   |   |   |   |   10 > 0.6: spanish (2.0/1.0)
|   |   |   |   |   |   |   |   |   |   |   |   |   |   |   |   |   |   |   |   |   |   |   |   888 > 0.46
|   |   |   |   |   |   |   |   |   |   |   |   |   |   |   |   |   |   |   |   |   |   |   |   |   159 <= 0.5: mexican (3.0/1.0)
|   |   |   |   |   |   |   |   |   |   |   |   |   |   |   |   |   |   |   |   |   |   |   |   |   159 > 0.5: italian (3.0)
|   |   |   |   |   |   |   |   |   |   |   |   |   |   |   |   |   |   |   |   |   |   |   19 > 0.36
|   |   |   |   |   |   |   |   |   |   |   |   |   |   |   |   |   |   |   |   |   |   |   |   26 <= 0.62
|   |   |   |   |   |   |   |   |   |   |   |   |   |   |   |   |   |   |   |   |   |   |   |   |   77 <= 0.32: mexican (2.0)
|   |   |   |   |   |   |   |   |   |   |   |   |   |   |   |   |   |   |   |   |   |   |   |   |   77 > 0.32
|   |   |   |   |   |   |   |   |   |   |   |   |   |   |   |   |   |   |   |   |   |   |   |   |   |   10 <= 0.78
|   |   |   |   |   |   |   |   |   |   |   |   |   |   |   |   |   |   |   |   |   |   |   |   |   |   |   164 <= 0.26: chinese (2.0)
|   |   |   |   |   |   |   |   |   |   |   |   |   |   |   |   |   |   |   |   |   |   |   |   |   |   |   164 > 0.26
|   |   |   |   |   |   |   |   |   |   |   |   |   |   |   |   |   |   |   |   |   |   |   |   |   |   |   |   839 <= 0.52: korean (2.0/1.0)
|   |   |   |   |   |   |   |   |   |   |   |   |   |   |   |   |   |   |   |   |   |   |   |   |   |   |   |   839 > 0.52
|   |   |   |   |   |   |   |   |   |   |   |   |   |   |   |   |   |   |   |   |   |   |   |   |   |   |   |   |   14 <= 0.38: korean (3.0/1.0)
|   |   |   |   |   |   |   |   |   |   |   |   |   |   |   |   |   |   |   |   |   |   |   |   |   |   |   |   |   14 > 0.38
|   |   |   |   |   |   |   |   |   |   |   |   |   |   |   |   |   |   |   |   |   |   |   |   |   |   |   |   |   |   94 <= 0.89
|   |   |   |   |   |   |   |   |   |   |   |   |   |   |   |   |   |   |   |   |   |   |   |   |   |   |   |   |   |   |   275 <= 0.58
|   |   |   |   |   |   |   |   |   |   |   |   |   |   |   |   |   |   |   |   |   |   |   |   |   |   |   |   |   |   |   |   249 <= 0.24: vietnamese (4.0)
|   |   |   |   |   |   |   |   |   |   |   |   |   |   |   |   |   |   |   |   |   |   |   |   |   |   |   |   |   |   |   |   249 > 0.24
|   |   |   |   |   |   |   |   |   |   |   |   |   |   |   |   |   |   |   |   |   |   |   |   |   |   |   |   |   |   |   |   |   331 <= 0.56
|   |   |   |   |   |   |   |   |   |   |   |   |   |   |   |   |   |   |   |   |   |   |   |   |   |   |   |   |   |   |   |   |   |   163 <= 0.46
|   |   |   |   |   |   |   |   |   |   |   |   |   |   |   |   |   |   |   |   |   |   |   |   |   |   |   |   |   |   |   |   |   |   |   429 <= 0.44
|   |   |   |   |   |   |   |   |   |   |   |   |   |   |   |   |   |   |   |   |   |   |   |   |   |   |   |   |   |   |   |   |   |   |   |   1 <= 0.81: filipino (3.0)
|   |   |   |   |   |   |   |   |   |   |   |   |   |   |   |   |   |   |   |   |   |   |   |   |   |   |   |   |   |   |   |   |   |   |   |   1 > 0.81: thai (2.0)
|   |   |   |   |   |   |   |   |   |   |   |   |   |   |   |   |   |   |   |   |   |   |   |   |   |   |   |   |   |   |   |   |   |   |   429 > 0.44: vietnamese (6.0/1.0)
|   |   |   |   |   |   |   |   |   |   |   |   |   |   |   |   |   |   |   |   |   |   |   |   |   |   |   |   |   |   |   |   |   |   163 > 0.46
|   |   |   |   |   |   |   |   |   |   |   |   |   |   |   |   |   |   |   |   |   |   |   |   |   |   |   |   |   |   |   |   |   |   |   412 <= 0.4: vietnamese (2.0)
|   |   |   |   |   |   |   |   |   |   |   |   |   |   |   |   |   |   |   |   |   |   |   |   |   |   |   |   |   |   |   |   |   |   |   412 > 0.4
|   |   |   |   |   |   |   |   |   |   |   |   |   |   |   |   |   |   |   |   |   |   |   |   |   |   |   |   |   |   |   |   |   |   |   |   179 <= 0.75
|   |   |   |   |   |   |   |   |   |   |   |   |   |   |   |   |   |   |   |   |   |   |   |   |   |   |   |   |   |   |   |   |   |   |   |   |   29 <= 0.59
|   |   |   |   |   |   |   |   |   |   |   |   |   |   |   |   |   |   |   |   |   |   |   |   |   |   |   |   |   |   |   |   |   |   |   |   |   |   216 <= 0.35: thai (75.0/2.0)
|   |   |   |   |   |   |   |   |   |   |   |   |   |   |   |   |   |   |   |   |   |   |   |   |   |   |   |   |   |   |   |   |   |   |   |   |   |   216 > 0.35
|   |   |   |   |   |   |   |   |   |   |   |   |   |   |   |   |   |   |   |   |   |   |   |   |   |   |   |   |   |   |   |   |   |   |   |   |   |   |   6 <= 0.48
|   |   |   |   |   |   |   |   |   |   |   |   |   |   |   |   |   |   |   |   |   |   |   |   |   |   |   |   |   |   |   |   |   |   |   |   |   |   |   |   354 <= 0.53: vietnamese (2.0)
|   |   |   |   |   |   |   |   |   |   |   |   |   |   |   |   |   |   |   |   |   |   |   |   |   |   |   |   |   |   |   |   |   |   |   |   |   |   |   |   354 > 0.53: thai (40.0/5.0)
|   |   |   |   |   |   |   |   |   |   |   |   |   |   |   |   |   |   |   |   |   |   |   |   |   |   |   |   |   |   |   |   |   |   |   |   |   |   |   6 > 0.48: vietnamese (5.0/1.0)
|   |   |   |   |   |   |   |   |   |   |   |   |   |   |   |   |   |   |   |   |   |   |   |   |   |   |   |   |   |   |   |   |   |   |   |   |   29 > 0.59
|   |   |   |   |   |   |   |   |   |   |   |   |   |   |   |   |   |   |   |   |   |   |   |   |   |   |   |   |   |   |   |   |   |   |   |   |   |   231 <= 0.6: vietnamese (5.0/1.0)
|   |   |   |   |   |   |   |   |   |   |   |   |   |   |   |   |   |   |   |   |   |   |   |   |   |   |   |   |   |   |   |   |   |   |   |   |   |   231 > 0.6: thai (4.0)
|   |   |   |   |   |   |   |   |   |   |   |   |   |   |   |   |   |   |   |   |   |   |   |   |   |   |   |   |   |   |   |   |   |   |   |   179 > 0.75: vietnamese (2.0/1.0)
|   |   |   |   |   |   |   |   |   |   |   |   |   |   |   |   |   |   |   |   |   |   |   |   |   |   |   |   |   |   |   |   |   331 > 0.56: vietnamese (7.0/1.0)
|   |   |   |   |   |   |   |   |   |   |   |   |   |   |   |   |   |   |   |   |   |   |   |   |   |   |   |   |   |   |   275 > 0.58: vietnamese (4.0/1.0)
|   |   |   |   |   |   |   |   |   |   |   |   |   |   |   |   |   |   |   |   |   |   |   |   |   |   |   |   |   |   94 > 0.89: chinese (2.0)
|   |   |   |   |   |   |   |   |   |   |   |   |   |   |   |   |   |   |   |   |   |   |   |   |   |   10 > 0.78
|   |   |   |   |   |   |   |   |   |   |   |   |   |   |   |   |   |   |   |   |   |   |   |   |   |   |   946 <= 0.35: vietnamese (4.0)
|   |   |   |   |   |   |   |   |   |   |   |   |   |   |   |   |   |   |   |   |   |   |   |   |   |   |   946 > 0.35: filipino (4.0)
|   |   |   |   |   |   |   |   |   |   |   |   |   |   |   |   |   |   |   |   |   |   |   |   26 > 0.62
|   |   |   |   |   |   |   |   |   |   |   |   |   |   |   |   |   |   |   |   |   |   |   |   |   631 <= 0.58
|   |   |   |   |   |   |   |   |   |   |   |   |   |   |   |   |   |   |   |   |   |   |   |   |   |   186 <= 0.49: chinese (2.0/1.0)
|   |   |   |   |   |   |   |   |   |   |   |   |   |   |   |   |   |   |   |   |   |   |   |   |   |   186 > 0.49: mexican (5.0)
|   |   |   |   |   |   |   |   |   |   |   |   |   |   |   |   |   |   |   |   |   |   |   |   |   631 > 0.58: italian (3.0/2.0)
|   |   |   |   |   |   |   |   |   |   |   |   |   |   |   |   |   |   |   |   |   28 > 0.37
|   |   |   |   |   |   |   |   |   |   |   |   |   |   |   |   |   |   |   |   |   |   1 <= 0.81
|   |   |   |   |   |   |   |   |   |   |   |   |   |   |   |   |   |   |   |   |   |   |   9 <= 0.59
|   |   |   |   |   |   |   |   |   |   |   |   |   |   |   |   |   |   |   |   |   |   |   |   912 <= 0.63
|   |   |   |   |   |   |   |   |   |   |   |   |   |   |   |   |   |   |   |   |   |   |   |   |   397 <= 0.52
|   |   |   |   |   |   |   |   |   |   |   |   |   |   |   |   |   |   |   |   |   |   |   |   |   |   522 <= 0.44
|   |   |   |   |   |   |   |   |   |   |   |   |   |   |   |   |   |   |   |   |   |   |   |   |   |   |   890 <= 0.58
|   |   |   |   |   |   |   |   |   |   |   |   |   |   |   |   |   |   |   |   |   |   |   |   |   |   |   |   122 <= 0.57: indian (2.0/1.0)
|   |   |   |   |   |   |   |   |   |   |   |   |   |   |   |   |   |   |   |   |   |   |   |   |   |   |   |   122 > 0.57: chinese (6.0/1.0)
|   |   |   |   |   |   |   |   |   |   |   |   |   |   |   |   |   |   |   |   |   |   |   |   |   |   |   890 > 0.58: thai (4.0/1.0)
|   |   |   |   |   |   |   |   |   |   |   |   |   |   |   |   |   |   |   |   |   |   |   |   |   |   522 > 0.44
|   |   |   |   |   |   |   |   |   |   |   |   |   |   |   |   |   |   |   |   |   |   |   |   |   |   |   16 <= 0.53
|   |   |   |   |   |   |   |   |   |   |   |   |   |   |   |   |   |   |   |   |   |   |   |   |   |   |   |   189 <= 0.63
|   |   |   |   |   |   |   |   |   |   |   |   |   |   |   |   |   |   |   |   |   |   |   |   |   |   |   |   |   564 <= 0.37: greek (3.0/2.0)
|   |   |   |   |   |   |   |   |   |   |   |   |   |   |   |   |   |   |   |   |   |   |   |   |   |   |   |   |   564 > 0.37
|   |   |   |   |   |   |   |   |   |   |   |   |   |   |   |   |   |   |   |   |   |   |   |   |   |   |   |   |   |   933 <= 0.58
|   |   |   |   |   |   |   |   |   |   |   |   |   |   |   |   |   |   |   |   |   |   |   |   |   |   |   |   |   |   |   553 <= 0.55
|   |   |   |   |   |   |   |   |   |   |   |   |   |   |   |   |   |   |   |   |   |   |   |   |   |   |   |   |   |   |   |   6 <= 0.29: mexican (5.0)
|   |   |   |   |   |   |   |   |   |   |   |   |   |   |   |   |   |   |   |   |   |   |   |   |   |   |   |   |   |   |   |   6 > 0.29
|   |   |   |   |   |   |   |   |   |   |   |   |   |   |   |   |   |   |   |   |   |   |   |   |   |   |   |   |   |   |   |   |   32 <= 0.52
|   |   |   |   |   |   |   |   |   |   |   |   |   |   |   |   |   |   |   |   |   |   |   |   |   |   |   |   |   |   |   |   |   |   300 <= 0.57
|   |   |   |   |   |   |   |   |   |   |   |   |   |   |   |   |   |   |   |   |   |   |   |   |   |   |   |   |   |   |   |   |   |   |   291 <= 0.68
|   |   |   |   |   |   |   |   |   |   |   |   |   |   |   |   |   |   |   |   |   |   |   |   |   |   |   |   |   |   |   |   |   |   |   |   15 <= 0.39
|   |   |   |   |   |   |   |   |   |   |   |   |   |   |   |   |   |   |   |   |   |   |   |   |   |   |   |   |   |   |   |   |   |   |   |   |   339 <= 0.59
|   |   |   |   |   |   |   |   |   |   |   |   |   |   |   |   |   |   |   |   |   |   |   |   |   |   |   |   |   |   |   |   |   |   |   |   |   |   11 <= 0.32: filipino (2.0/1.0)
|   |   |   |   |   |   |   |   |   |   |   |   |   |   |   |   |   |   |   |   |   |   |   |   |   |   |   |   |   |   |   |   |   |   |   |   |   |   11 > 0.32: southern_us (2.0)
|   |   |   |   |   |   |   |   |   |   |   |   |   |   |   |   |   |   |   |   |   |   |   |   |   |   |   |   |   |   |   |   |   |   |   |   |   339 > 0.59: mexican (3.0/1.0)
|   |   |   |   |   |   |   |   |   |   |   |   |   |   |   |   |   |   |   |   |   |   |   |   |   |   |   |   |   |   |   |   |   |   |   |   15 > 0.39
|   |   |   |   |   |   |   |   |   |   |   |   |   |   |   |   |   |   |   |   |   |   |   |   |   |   |   |   |   |   |   |   |   |   |   |   |   856 <= 0.41
|   |   |   |   |   |   |   |   |   |   |   |   |   |   |   |   |   |   |   |   |   |   |   |   |   |   |   |   |   |   |   |   |   |   |   |   |   |   106 <= 0.6
|   |   |   |   |   |   |   |   |   |   |   |   |   |   |   |   |   |   |   |   |   |   |   |   |   |   |   |   |   |   |   |   |   |   |   |   |   |   |   522 <= 0.58
|   |   |   |   |   |   |   |   |   |   |   |   |   |   |   |   |   |   |   |   |   |   |   |   |   |   |   |   |   |   |   |   |   |   |   |   |   |   |   |   851 <= 0.65
|   |   |   |   |   |   |   |   |   |   |   |   |   |   |   |   |   |   |   |   |   |   |   |   |   |   |   |   |   |   |   |   |   |   |   |   |   |   |   |   |   465 <= 0.44
|   |   |   |   |   |   |   |   |   |   |   |   |   |   |   |   |   |   |   |   |   |   |   |   |   |   |   |   |   |   |   |   |   |   |   |   |   |   |   |   |   |   274 <= 0.56
|   |   |   |   |   |   |   |   |   |   |   |   |   |   |   |   |   |   |   |   |   |   |   |   |   |   |   |   |   |   |   |   |   |   |   |   |   |   |   |   |   |   |   959 <= 0.72
|   |   |   |   |   |   |   |   |   |   |   |   |   |   |   |   |   |   |   |   |   |   |   |   |   |   |   |   |   |   |   |   |   |   |   |   |   |   |   |   |   |   |   |   89 <= 0.62: cajun_creole (41.0/1.0)
|   |   |   |   |   |   |   |   |   |   |   |   |   |   |   |   |   |   |   |   |   |   |   |   |   |   |   |   |   |   |   |   |   |   |   |   |   |   |   |   |   |   |   |   89 > 0.62: southern_us (2.0/1.0)
|   |   |   |   |   |   |   |   |   |   |   |   |   |   |   |   |   |   |   |   |   |   |   |   |   |   |   |   |   |   |   |   |   |   |   |   |   |   |   |   |   |   |   959 > 0.72: southern_us (2.0)
|   |   |   |   |   |   |   |   |   |   |   |   |   |   |   |   |   |   |   |   |   |   |   |   |   |   |   |   |   |   |   |   |   |   |   |   |   |   |   |   |   |   274 > 0.56: southern_us (3.0)
|   |   |   |   |   |   |   |   |   |   |   |   |   |   |   |   |   |   |   |   |   |   |   |   |   |   |   |   |   |   |   |   |   |   |   |   |   |   |   |   |   465 > 0.44: southern_us (7.0/1.0)
|   |   |   |   |   |   |   |   |   |   |   |   |   |   |   |   |   |   |   |   |   |   |   |   |   |   |   |   |   |   |   |   |   |   |   |   |   |   |   |   851 > 0.65: southern_us (6.0)
|   |   |   |   |   |   |   |   |   |   |   |   |   |   |   |   |   |   |   |   |   |   |   |   |   |   |   |   |   |   |   |   |   |   |   |   |   |   |   522 > 0.58: jamaican (2.0/1.0)
|   |   |   |   |   |   |   |   |   |   |   |   |   |   |   |   |   |   |   |   |   |   |   |   |   |   |   |   |   |   |   |   |   |   |   |   |   |   106 > 0.6: mexican (2.0)
|   |   |   |   |   |   |   |   |   |   |   |   |   |   |   |   |   |   |   |   |   |   |   |   |   |   |   |   |   |   |   |   |   |   |   |   |   856 > 0.41: mexican (2.0)
|   |   |   |   |   |   |   |   |   |   |   |   |   |   |   |   |   |   |   |   |   |   |   |   |   |   |   |   |   |   |   |   |   |   |   291 > 0.68: spanish (2.0/1.0)
|   |   |   |   |   |   |   |   |   |   |   |   |   |   |   |   |   |   |   |   |   |   |   |   |   |   |   |   |   |   |   |   |   |   300 > 0.57
|   |   |   |   |   |   |   |   |   |   |   |   |   |   |   |   |   |   |   |   |   |   |   |   |   |   |   |   |   |   |   |   |   |   |   2 <= 0.3: italian (2.0)
|   |   |   |   |   |   |   |   |   |   |   |   |   |   |   |   |   |   |   |   |   |   |   |   |   |   |   |   |   |   |   |   |   |   |   2 > 0.3: spanish (2.0/1.0)
|   |   |   |   |   |   |   |   |   |   |   |   |   |   |   |   |   |   |   |   |   |   |   |   |   |   |   |   |   |   |   |   |   32 > 0.52
|   |   |   |   |   |   |   |   |   |   |   |   |   |   |   |   |   |   |   |   |   |   |   |   |   |   |   |   |   |   |   |   |   |   417 <= 0.46
|   |   |   |   |   |   |   |   |   |   |   |   |   |   |   |   |   |   |   |   |   |   |   |   |   |   |   |   |   |   |   |   |   |   |   537 <= 0.43: filipino (5.0/1.0)
|   |   |   |   |   |   |   |   |   |   |   |   |   |   |   |   |   |   |   |   |   |   |   |   |   |   |   |   |   |   |   |   |   |   |   537 > 0.43
|   |   |   |   |   |   |   |   |   |   |   |   |   |   |   |   |   |   |   |   |   |   |   |   |   |   |   |   |   |   |   |   |   |   |   |   311 <= 0.51: cajun_creole (2.0)
|   |   |   |   |   |   |   |   |   |   |   |   |   |   |   |   |   |   |   |   |   |   |   |   |   |   |   |   |   |   |   |   |   |   |   |   311 > 0.51: spanish (4.0)
|   |   |   |   |   |   |   |   |   |   |   |   |   |   |   |   |   |   |   |   |   |   |   |   |   |   |   |   |   |   |   |   |   |   417 > 0.46
|   |   |   |   |   |   |   |   |   |   |   |   |   |   |   |   |   |   |   |   |   |   |   |   |   |   |   |   |   |   |   |   |   |   |   380 <= 0.48: french (2.0/1.0)
|   |   |   |   |   |   |   |   |   |   |   |   |   |   |   |   |   |   |   |   |   |   |   |   |   |   |   |   |   |   |   |   |   |   |   380 > 0.48: italian (5.0)
|   |   |   |   |   |   |   |   |   |   |   |   |   |   |   |   |   |   |   |   |   |   |   |   |   |   |   |   |   |   |   553 > 0.55: filipino (5.0/1.0)
|   |   |   |   |   |   |   |   |   |   |   |   |   |   |   |   |   |   |   |   |   |   |   |   |   |   |   |   |   |   933 > 0.58: filipino (3.0/1.0)
|   |   |   |   |   |   |   |   |   |   |   |   |   |   |   |   |   |   |   |   |   |   |   |   |   |   |   |   189 > 0.63
|   |   |   |   |   |   |   |   |   |   |   |   |   |   |   |   |   |   |   |   |   |   |   |   |   |   |   |   |   35 <= 0.4: french (2.0)
|   |   |   |   |   |   |   |   |   |   |   |   |   |   |   |   |   |   |   |   |   |   |   |   |   |   |   |   |   35 > 0.4
|   |   |   |   |   |   |   |   |   |   |   |   |   |   |   |   |   |   |   |   |   |   |   |   |   |   |   |   |   |   1 <= 0.55: greek (2.0)
|   |   |   |   |   |   |   |   |   |   |   |   |   |   |   |   |   |   |   |   |   |   |   |   |   |   |   |   |   |   1 > 0.55: cajun_creole (2.0/1.0)
|   |   |   |   |   |   |   |   |   |   |   |   |   |   |   |   |   |   |   |   |   |   |   |   |   |   |   16 > 0.53
|   |   |   |   |   |   |   |   |   |   |   |   |   |   |   |   |   |   |   |   |   |   |   |   |   |   |   |   279 <= 0.57
|   |   |   |   |   |   |   |   |   |   |   |   |   |   |   |   |   |   |   |   |   |   |   |   |   |   |   |   |   961 <= 0.6
|   |   |   |   |   |   |   |   |   |   |   |   |   |   |   |   |   |   |   |   |   |   |   |   |   |   |   |   |   |   135 <= 0.38
|   |   |   |   |   |   |   |   |   |   |   |   |   |   |   |   |   |   |   |   |   |   |   |   |   |   |   |   |   |   |   36 <= 0.48
|   |   |   |   |   |   |   |   |   |   |   |   |   |   |   |   |   |   |   |   |   |   |   |   |   |   |   |   |   |   |   |   3 <= 0.4: mexican (2.0)
|   |   |   |   |   |   |   |   |   |   |   |   |   |   |   |   |   |   |   |   |   |   |   |   |   |   |   |   |   |   |   |   3 > 0.4: jamaican (2.0/1.0)
|   |   |   |   |   |   |   |   |   |   |   |   |   |   |   |   |   |   |   |   |   |   |   |   |   |   |   |   |   |   |   36 > 0.48: chinese (2.0)
|   |   |   |   |   |   |   |   |   |   |   |   |   |   |   |   |   |   |   |   |   |   |   |   |   |   |   |   |   |   135 > 0.38
|   |   |   |   |   |   |   |   |   |   |   |   |   |   |   |   |   |   |   |   |   |   |   |   |   |   |   |   |   |   |   151 <= 0.45
|   |   |   |   |   |   |   |   |   |   |   |   |   |   |   |   |   |   |   |   |   |   |   |   |   |   |   |   |   |   |   |   852 <= 0.54: southern_us (2.0)
|   |   |   |   |   |   |   |   |   |   |   |   |   |   |   |   |   |   |   |   |   |   |   |   |   |   |   |   |   |   |   |   852 > 0.54: cajun_creole (6.0/1.0)
|   |   |   |   |   |   |   |   |   |   |   |   |   |   |   |   |   |   |   |   |   |   |   |   |   |   |   |   |   |   |   151 > 0.45
|   |   |   |   |   |   |   |   |   |   |   |   |   |   |   |   |   |   |   |   |   |   |   |   |   |   |   |   |   |   |   |   208 <= 0.41: thai (5.0/1.0)
|   |   |   |   |   |   |   |   |   |   |   |   |   |   |   |   |   |   |   |   |   |   |   |   |   |   |   |   |   |   |   |   208 > 0.41
|   |   |   |   |   |   |   |   |   |   |   |   |   |   |   |   |   |   |   |   |   |   |   |   |   |   |   |   |   |   |   |   |   122 <= 0.53
|   |   |   |   |   |   |   |   |   |   |   |   |   |   |   |   |   |   |   |   |   |   |   |   |   |   |   |   |   |   |   |   |   |   902 <= 0.54
|   |   |   |   |   |   |   |   |   |   |   |   |   |   |   |   |   |   |   |   |   |   |   |   |   |   |   |   |   |   |   |   |   |   |   369 <= 0.5: jamaican (3.0)
|   |   |   |   |   |   |   |   |   |   |   |   |   |   |   |   |   |   |   |   |   |   |   |   |   |   |   |   |   |   |   |   |   |   |   369 > 0.5: brazilian (3.0/1.0)
|   |   |   |   |   |   |   |   |   |   |   |   |   |   |   |   |   |   |   |   |   |   |   |   |   |   |   |   |   |   |   |   |   |   902 > 0.54
|   |   |   |   |   |   |   |   |   |   |   |   |   |   |   |   |   |   |   |   |   |   |   |   |   |   |   |   |   |   |   |   |   |   |   697 <= 0.48: indian (5.0)
|   |   |   |   |   |   |   |   |   |   |   |   |   |   |   |   |   |   |   |   |   |   |   |   |   |   |   |   |   |   |   |   |   |   |   697 > 0.48: thai (2.0/1.0)
|   |   |   |   |   |   |   |   |   |   |   |   |   |   |   |   |   |   |   |   |   |   |   |   |   |   |   |   |   |   |   |   |   122 > 0.53
|   |   |   |   |   |   |   |   |   |   |   |   |   |   |   |   |   |   |   |   |   |   |   |   |   |   |   |   |   |   |   |   |   |   276 <= 0.44: jamaican (5.0)
|   |   |   |   |   |   |   |   |   |   |   |   |   |   |   |   |   |   |   |   |   |   |   |   |   |   |   |   |   |   |   |   |   |   276 > 0.44
|   |   |   |   |   |   |   |   |   |   |   |   |   |   |   |   |   |   |   |   |   |   |   |   |   |   |   |   |   |   |   |   |   |   |   277 <= 0.72
|   |   |   |   |   |   |   |   |   |   |   |   |   |   |   |   |   |   |   |   |   |   |   |   |   |   |   |   |   |   |   |   |   |   |   |   180 <= 0.51
|   |   |   |   |   |   |   |   |   |   |   |   |   |   |   |   |   |   |   |   |   |   |   |   |   |   |   |   |   |   |   |   |   |   |   |   |   5 <= 0.47
|   |   |   |   |   |   |   |   |   |   |   |   |   |   |   |   |   |   |   |   |   |   |   |   |   |   |   |   |   |   |   |   |   |   |   |   |   |   223 <= 0.45: indian (2.0)
|   |   |   |   |   |   |   |   |   |   |   |   |   |   |   |   |   |   |   |   |   |   |   |   |   |   |   |   |   |   |   |   |   |   |   |   |   |   223 > 0.45
|   |   |   |   |   |   |   |   |   |   |   |   |   |   |   |   |   |   |   |   |   |   |   |   |   |   |   |   |   |   |   |   |   |   |   |   |   |   |   976 <= 0.46: filipino (5.0/1.0)
|   |   |   |   |   |   |   |   |   |   |   |   |   |   |   |   |   |   |   |   |   |   |   |   |   |   |   |   |   |   |   |   |   |   |   |   |   |   |   976 > 0.46
|   |   |   |   |   |   |   |   |   |   |   |   |   |   |   |   |   |   |   |   |   |   |   |   |   |   |   |   |   |   |   |   |   |   |   |   |   |   |   |   184 <= 0.38: chinese (2.0)
|   |   |   |   |   |   |   |   |   |   |   |   |   |   |   |   |   |   |   |   |   |   |   |   |   |   |   |   |   |   |   |   |   |   |   |   |   |   |   |   184 > 0.38
|   |   |   |   |   |   |   |   |   |   |   |   |   |   |   |   |   |   |   |   |   |   |   |   |   |   |   |   |   |   |   |   |   |   |   |   |   |   |   |   |   235 <= 0.5: korean (7.0)
|   |   |   |   |   |   |   |   |   |   |   |   |   |   |   |   |   |   |   |   |   |   |   |   |   |   |   |   |   |   |   |   |   |   |   |   |   |   |   |   |   235 > 0.5: southern_us (12.0/1.0)
|   |   |   |   |   |   |   |   |   |   |   |   |   |   |   |   |   |   |   |   |   |   |   |   |   |   |   |   |   |   |   |   |   |   |   |   |   5 > 0.47
|   |   |   |   |   |   |   |   |   |   |   |   |   |   |   |   |   |   |   |   |   |   |   |   |   |   |   |   |   |   |   |   |   |   |   |   |   |   5 <= 0.48: thai (3.0)
|   |   |   |   |   |   |   |   |   |   |   |   |   |   |   |   |   |   |   |   |   |   |   |   |   |   |   |   |   |   |   |   |   |   |   |   |   |   5 > 0.48: chinese (3.0)
|   |   |   |   |   |   |   |   |   |   |   |   |   |   |   |   |   |   |   |   |   |   |   |   |   |   |   |   |   |   |   |   |   |   |   |   180 > 0.51: japanese (5.0/1.0)
|   |   |   |   |   |   |   |   |   |   |   |   |   |   |   |   |   |   |   |   |   |   |   |   |   |   |   |   |   |   |   |   |   |   |   277 > 0.72: jamaican (2.0)
|   |   |   |   |   |   |   |   |   |   |   |   |   |   |   |   |   |   |   |   |   |   |   |   |   |   |   |   |   961 > 0.6
|   |   |   |   |   |   |   |   |   |   |   |   |   |   |   |   |   |   |   |   |   |   |   |   |   |   |   |   |   |   161 <= 0.45: korean (2.0/1.0)
|   |   |   |   |   |   |   |   |   |   |   |   |   |   |   |   |   |   |   |   |   |   |   |   |   |   |   |   |   |   161 > 0.45
|   |   |   |   |   |   |   |   |   |   |   |   |   |   |   |   |   |   |   |   |   |   |   |   |   |   |   |   |   |   |   206 <= 0.44: cajun_creole (3.0)
|   |   |   |   |   |   |   |   |   |   |   |   |   |   |   |   |   |   |   |   |   |   |   |   |   |   |   |   |   |   |   206 > 0.44: spanish (2.0/1.0)
|   |   |   |   |   |   |   |   |   |   |   |   |   |   |   |   |   |   |   |   |   |   |   |   |   |   |   |   279 > 0.57
|   |   |   |   |   |   |   |   |   |   |   |   |   |   |   |   |   |   |   |   |   |   |   |   |   |   |   |   |   916 <= 0.5: jamaican (11.0)
|   |   |   |   |   |   |   |   |   |   |   |   |   |   |   |   |   |   |   |   |   |   |   |   |   |   |   |   |   916 > 0.5: british (3.0/1.0)
|   |   |   |   |   |   |   |   |   |   |   |   |   |   |   |   |   |   |   |   |   |   |   |   |   397 > 0.52
|   |   |   |   |   |   |   |   |   |   |   |   |   |   |   |   |   |   |   |   |   |   |   |   |   |   935 <= 0.51
|   |   |   |   |   |   |   |   |   |   |   |   |   |   |   |   |   |   |   |   |   |   |   |   |   |   |   69 <= 0.57: spanish (4.0)
|   |   |   |   |   |   |   |   |   |   |   |   |   |   |   |   |   |   |   |   |   |   |   |   |   |   |   69 > 0.57: italian (4.0)
|   |   |   |   |   |   |   |   |   |   |   |   |   |   |   |   |   |   |   |   |   |   |   |   |   |   935 > 0.51
|   |   |   |   |   |   |   |   |   |   |   |   |   |   |   |   |   |   |   |   |   |   |   |   |   |   |   11 <= 0.4: vietnamese (2.0/1.0)
|   |   |   |   |   |   |   |   |   |   |   |   |   |   |   |   |   |   |   |   |   |   |   |   |   |   |   11 > 0.4: brazilian (3.0/2.0)
|   |   |   |   |   |   |   |   |   |   |   |   |   |   |   |   |   |   |   |   |   |   |   |   912 > 0.63
|   |   |   |   |   |   |   |   |   |   |   |   |   |   |   |   |   |   |   |   |   |   |   |   |   311 <= 0.5: french (5.0/1.0)
|   |   |   |   |   |   |   |   |   |   |   |   |   |   |   |   |   |   |   |   |   |   |   |   |   311 > 0.5
|   |   |   |   |   |   |   |   |   |   |   |   |   |   |   |   |   |   |   |   |   |   |   |   |   |   6 <= 0.43: indian (2.0/1.0)
|   |   |   |   |   |   |   |   |   |   |   |   |   |   |   |   |   |   |   |   |   |   |   |   |   |   6 > 0.43: italian (3.0/1.0)
|   |   |   |   |   |   |   |   |   |   |   |   |   |   |   |   |   |   |   |   |   |   |   9 > 0.59
|   |   |   |   |   |   |   |   |   |   |   |   |   |   |   |   |   |   |   |   |   |   |   |   792 <= 0.52
|   |   |   |   |   |   |   |   |   |   |   |   |   |   |   |   |   |   |   |   |   |   |   |   |   221 <= 0.49
|   |   |   |   |   |   |   |   |   |   |   |   |   |   |   |   |   |   |   |   |   |   |   |   |   |   924 <= 0.5: japanese (3.0/1.0)
|   |   |   |   |   |   |   |   |   |   |   |   |   |   |   |   |   |   |   |   |   |   |   |   |   |   924 > 0.5
|   |   |   |   |   |   |   |   |   |   |   |   |   |   |   |   |   |   |   |   |   |   |   |   |   |   |   2 <= 0.71
|   |   |   |   |   |   |   |   |   |   |   |   |   |   |   |   |   |   |   |   |   |   |   |   |   |   |   |   693 <= 0.44
|   |   |   |   |   |   |   |   |   |   |   |   |   |   |   |   |   |   |   |   |   |   |   |   |   |   |   |   |   2 <= 0.29: moroccan (2.0)
|   |   |   |   |   |   |   |   |   |   |   |   |   |   |   |   |   |   |   |   |   |   |   |   |   |   |   |   |   2 > 0.29: vietnamese (2.0/1.0)
|   |   |   |   |   |   |   |   |   |   |   |   |   |   |   |   |   |   |   |   |   |   |   |   |   |   |   |   693 > 0.44
|   |   |   |   |   |   |   |   |   |   |   |   |   |   |   |   |   |   |   |   |   |   |   |   |   |   |   |   |   407 <= 0.45: moroccan (3.0)
|   |   |   |   |   |   |   |   |   |   |   |   |   |   |   |   |   |   |   |   |   |   |   |   |   |   |   |   |   407 > 0.45
|   |   |   |   |   |   |   |   |   |   |   |   |   |   |   |   |   |   |   |   |   |   |   |   |   |   |   |   |   |   998 <= 0.5
|   |   |   |   |   |   |   |   |   |   |   |   |   |   |   |   |   |   |   |   |   |   |   |   |   |   |   |   |   |   |   14 <= 0.47: mexican (29.0)
|   |   |   |   |   |   |   |   |   |   |   |   |   |   |   |   |   |   |   |   |   |   |   |   |   |   |   |   |   |   |   14 > 0.47
|   |   |   |   |   |   |   |   |   |   |   |   |   |   |   |   |   |   |   |   |   |   |   |   |   |   |   |   |   |   |   |   460 <= 0.34: brazilian (3.0)
|   |   |   |   |   |   |   |   |   |   |   |   |   |   |   |   |   |   |   |   |   |   |   |   |   |   |   |   |   |   |   |   460 > 0.34
|   |   |   |   |   |   |   |   |   |   |   |   |   |   |   |   |   |   |   |   |   |   |   |   |   |   |   |   |   |   |   |   |   984 <= 0.51
|   |   |   |   |   |   |   |   |   |   |   |   |   |   |   |   |   |   |   |   |   |   |   |   |   |   |   |   |   |   |   |   |   |   79 <= 0.51: mexican (3.0)
|   |   |   |   |   |   |   |   |   |   |   |   |   |   |   |   |   |   |   |   |   |   |   |   |   |   |   |   |   |   |   |   |   |   79 > 0.51: indian (18.0/1.0)
|   |   |   |   |   |   |   |   |   |   |   |   |   |   |   |   |   |   |   |   |   |   |   |   |   |   |   |   |   |   |   |   |   984 > 0.51: mexican (6.0/1.0)
|   |   |   |   |   |   |   |   |   |   |   |   |   |   |   |   |   |   |   |   |   |   |   |   |   |   |   |   |   |   998 > 0.5: moroccan (2.0)
|   |   |   |   |   |   |   |   |   |   |   |   |   |   |   |   |   |   |   |   |   |   |   |   |   |   |   2 > 0.71
|   |   |   |   |   |   |   |   |   |   |   |   |   |   |   |   |   |   |   |   |   |   |   |   |   |   |   |   2 <= 0.8: cajun_creole (2.0/1.0)
|   |   |   |   |   |   |   |   |   |   |   |   |   |   |   |   |   |   |   |   |   |   |   |   |   |   |   |   2 > 0.8: italian (2.0)
|   |   |   |   |   |   |   |   |   |   |   |   |   |   |   |   |   |   |   |   |   |   |   |   |   221 > 0.49
|   |   |   |   |   |   |   |   |   |   |   |   |   |   |   |   |   |   |   |   |   |   |   |   |   |   56 <= 0.63: southern_us (3.0/1.0)
|   |   |   |   |   |   |   |   |   |   |   |   |   |   |   |   |   |   |   |   |   |   |   |   |   |   56 > 0.63: jamaican (2.0)
|   |   |   |   |   |   |   |   |   |   |   |   |   |   |   |   |   |   |   |   |   |   |   |   792 > 0.52
|   |   |   |   |   |   |   |   |   |   |   |   |   |   |   |   |   |   |   |   |   |   |   |   |   1 <= 0.61: cajun_creole (2.0)
|   |   |   |   |   |   |   |   |   |   |   |   |   |   |   |   |   |   |   |   |   |   |   |   |   1 > 0.61: russian (2.0/1.0)
|   |   |   |   |   |   |   |   |   |   |   |   |   |   |   |   |   |   |   |   |   |   1 > 0.81
|   |   |   |   |   |   |   |   |   |   |   |   |   |   |   |   |   |   |   |   |   |   |   20 <= 0.61
|   |   |   |   |   |   |   |   |   |   |   |   |   |   |   |   |   |   |   |   |   |   |   |   973 <= 0.25
|   |   |   |   |   |   |   |   |   |   |   |   |   |   |   |   |   |   |   |   |   |   |   |   |   9 <= 0.62: thai (4.0/1.0)
|   |   |   |   |   |   |   |   |   |   |   |   |   |   |   |   |   |   |   |   |   |   |   |   |   9 > 0.62: italian (2.0)
|   |   |   |   |   |   |   |   |   |   |   |   |   |   |   |   |   |   |   |   |   |   |   |   973 > 0.25
|   |   |   |   |   |   |   |   |   |   |   |   |   |   |   |   |   |   |   |   |   |   |   |   |   102 <= 0.41
|   |   |   |   |   |   |   |   |   |   |   |   |   |   |   |   |   |   |   |   |   |   |   |   |   |   613 <= 0.3: thai (3.0)
|   |   |   |   |   |   |   |   |   |   |   |   |   |   |   |   |   |   |   |   |   |   |   |   |   |   613 > 0.3
|   |   |   |   |   |   |   |   |   |   |   |   |   |   |   |   |   |   |   |   |   |   |   |   |   |   |   664 <= 0.42: filipino (2.0/1.0)
|   |   |   |   |   |   |   |   |   |   |   |   |   |   |   |   |   |   |   |   |   |   |   |   |   |   |   664 > 0.42
|   |   |   |   |   |   |   |   |   |   |   |   |   |   |   |   |   |   |   |   |   |   |   |   |   |   |   |   686 <= 0.46: jamaican (2.0)
|   |   |   |   |   |   |   |   |   |   |   |   |   |   |   |   |   |   |   |   |   |   |   |   |   |   |   |   686 > 0.46: vietnamese (7.0)
|   |   |   |   |   |   |   |   |   |   |   |   |   |   |   |   |   |   |   |   |   |   |   |   |   102 > 0.41
|   |   |   |   |   |   |   |   |   |   |   |   |   |   |   |   |   |   |   |   |   |   |   |   |   |   136 <= 0.67
|   |   |   |   |   |   |   |   |   |   |   |   |   |   |   |   |   |   |   |   |   |   |   |   |   |   |   913 <= 0.65
|   |   |   |   |   |   |   |   |   |   |   |   |   |   |   |   |   |   |   |   |   |   |   |   |   |   |   |   99 <= 0.32: mexican (3.0/1.0)
|   |   |   |   |   |   |   |   |   |   |   |   |   |   |   |   |   |   |   |   |   |   |   |   |   |   |   |   99 > 0.32
|   |   |   |   |   |   |   |   |   |   |   |   |   |   |   |   |   |   |   |   |   |   |   |   |   |   |   |   |   653 <= 0.62
|   |   |   |   |   |   |   |   |   |   |   |   |   |   |   |   |   |   |   |   |   |   |   |   |   |   |   |   |   |   638 <= 0.54
|   |   |   |   |   |   |   |   |   |   |   |   |   |   |   |   |   |   |   |   |   |   |   |   |   |   |   |   |   |   |   34 <= 0.4: thai (4.0)
|   |   |   |   |   |   |   |   |   |   |   |   |   |   |   |   |   |   |   |   |   |   |   |   |   |   |   |   |   |   |   34 > 0.4
|   |   |   |   |   |   |   |   |   |   |   |   |   |   |   |   |   |   |   |   |   |   |   |   |   |   |   |   |   |   |   |   616 <= 0.48
|   |   |   |   |   |   |   |   |   |   |   |   |   |   |   |   |   |   |   |   |   |   |   |   |   |   |   |   |   |   |   |   |   589 <= 0.59
|   |   |   |   |   |   |   |   |   |   |   |   |   |   |   |   |   |   |   |   |   |   |   |   |   |   |   |   |   |   |   |   |   |   404 <= 0.46: korean (3.0)
|   |   |   |   |   |   |   |   |   |   |   |   |   |   |   |   |   |   |   |   |   |   |   |   |   |   |   |   |   |   |   |   |   |   404 > 0.46
|   |   |   |   |   |   |   |   |   |   |   |   |   |   |   |   |   |   |   |   |   |   |   |   |   |   |   |   |   |   |   |   |   |   |   11 <= 0.3
|   |   |   |   |   |   |   |   |   |   |   |   |   |   |   |   |   |   |   |   |   |   |   |   |   |   |   |   |   |   |   |   |   |   |   |   669 <= 0.56: chinese (3.0/1.0)
|   |   |   |   |   |   |   |   |   |   |   |   |   |   |   |   |   |   |   |   |   |   |   |   |   |   |   |   |   |   |   |   |   |   |   |   669 > 0.56: japanese (18.0/1.0)
|   |   |   |   |   |   |   |   |   |   |   |   |   |   |   |   |   |   |   |   |   |   |   |   |   |   |   |   |   |   |   |   |   |   |   11 > 0.3: chinese (6.0)
|   |   |   |   |   |   |   |   |   |   |   |   |   |   |   |   |   |   |   |   |   |   |   |   |   |   |   |   |   |   |   |   |   589 > 0.59: chinese (15.0)
|   |   |   |   |   |   |   |   |   |   |   |   |   |   |   |   |   |   |   |   |   |   |   |   |   |   |   |   |   |   |   |   616 > 0.48: thai (2.0)
|   |   |   |   |   |   |   |   |   |   |   |   |   |   |   |   |   |   |   |   |   |   |   |   |   |   |   |   |   |   638 > 0.54: thai (7.0)
|   |   |   |   |   |   |   |   |   |   |   |   |   |   |   |   |   |   |   |   |   |   |   |   |   |   |   |   |   653 > 0.62: korean (4.0/1.0)
|   |   |   |   |   |   |   |   |   |   |   |   |   |   |   |   |   |   |   |   |   |   |   |   |   |   |   913 > 0.65: filipino (3.0)
|   |   |   |   |   |   |   |   |   |   |   |   |   |   |   |   |   |   |   |   |   |   |   |   |   |   136 > 0.67
|   |   |   |   |   |   |   |   |   |   |   |   |   |   |   |   |   |   |   |   |   |   |   |   |   |   |   1 <= 0.86: jamaican (2.0/1.0)
|   |   |   |   |   |   |   |   |   |   |   |   |   |   |   |   |   |   |   |   |   |   |   |   |   |   |   1 > 0.86: southern_us (2.0/1.0)
|   |   |   |   |   |   |   |   |   |   |   |   |   |   |   |   |   |   |   |   |   |   |   20 > 0.61
|   |   |   |   |   |   |   |   |   |   |   |   |   |   |   |   |   |   |   |   |   |   |   |   11 <= 0.37: russian (2.0/1.0)
|   |   |   |   |   |   |   |   |   |   |   |   |   |   |   |   |   |   |   |   |   |   |   |   11 > 0.37: spanish (3.0/1.0)
|   |   |   |   |   |   |   |   |   |   |   |   |   |   |   |   |   |   |   31 > 0.49
|   |   |   |   |   |   |   |   |   |   |   |   |   |   |   |   |   |   |   |   809 <= 0.33
|   |   |   |   |   |   |   |   |   |   |   |   |   |   |   |   |   |   |   |   |   817 <= 0.65
|   |   |   |   |   |   |   |   |   |   |   |   |   |   |   |   |   |   |   |   |   |   803 <= 0.44
|   |   |   |   |   |   |   |   |   |   |   |   |   |   |   |   |   |   |   |   |   |   |   31 <= 0.61: brazilian (2.0/1.0)
|   |   |   |   |   |   |   |   |   |   |   |   |   |   |   |   |   |   |   |   |   |   |   31 > 0.61: chinese (3.0)
|   |   |   |   |   |   |   |   |   |   |   |   |   |   |   |   |   |   |   |   |   |   803 > 0.44
|   |   |   |   |   |   |   |   |   |   |   |   |   |   |   |   |   |   |   |   |   |   |   705 <= 0.49: filipino (2.0/1.0)
|   |   |   |   |   |   |   |   |   |   |   |   |   |   |   |   |   |   |   |   |   |   |   705 > 0.49
|   |   |   |   |   |   |   |   |   |   |   |   |   |   |   |   |   |   |   |   |   |   |   |   145 <= 0.46: spanish (4.0/1.0)
|   |   |   |   |   |   |   |   |   |   |   |   |   |   |   |   |   |   |   |   |   |   |   |   145 > 0.46: mexican (26.0)
|   |   |   |   |   |   |   |   |   |   |   |   |   |   |   |   |   |   |   |   |   817 > 0.65
|   |   |   |   |   |   |   |   |   |   |   |   |   |   |   |   |   |   |   |   |   |   915 <= 0.68: greek (12.0)
|   |   |   |   |   |   |   |   |   |   |   |   |   |   |   |   |   |   |   |   |   |   915 > 0.68: indian (4.0/1.0)
|   |   |   |   |   |   |   |   |   |   |   |   |   |   |   |   |   |   |   |   809 > 0.33
|   |   |   |   |   |   |   |   |   |   |   |   |   |   |   |   |   |   |   |   |   38 <= 0.71
|   |   |   |   |   |   |   |   |   |   |   |   |   |   |   |   |   |   |   |   |   |   512 <= 0.37
|   |   |   |   |   |   |   |   |   |   |   |   |   |   |   |   |   |   |   |   |   |   |   518 <= 0.51
|   |   |   |   |   |   |   |   |   |   |   |   |   |   |   |   |   |   |   |   |   |   |   |   258 <= 0.36: korean (3.0/1.0)
|   |   |   |   |   |   |   |   |   |   |   |   |   |   |   |   |   |   |   |   |   |   |   |   258 > 0.36
|   |   |   |   |   |   |   |   |   |   |   |   |   |   |   |   |   |   |   |   |   |   |   |   |   30 <= 0.57: japanese (7.0)
|   |   |   |   |   |   |   |   |   |   |   |   |   |   |   |   |   |   |   |   |   |   |   |   |   30 > 0.57: filipino (3.0/1.0)
|   |   |   |   |   |   |   |   |   |   |   |   |   |   |   |   |   |   |   |   |   |   |   518 > 0.51
|   |   |   |   |   |   |   |   |   |   |   |   |   |   |   |   |   |   |   |   |   |   |   |   511 <= 0.21
|   |   |   |   |   |   |   |   |   |   |   |   |   |   |   |   |   |   |   |   |   |   |   |   |   263 <= 0.51: southern_us (4.0)
|   |   |   |   |   |   |   |   |   |   |   |   |   |   |   |   |   |   |   |   |   |   |   |   |   263 > 0.51: cajun_creole (2.0/1.0)
|   |   |   |   |   |   |   |   |   |   |   |   |   |   |   |   |   |   |   |   |   |   |   |   511 > 0.21: mexican (48.0/1.0)
|   |   |   |   |   |   |   |   |   |   |   |   |   |   |   |   |   |   |   |   |   |   512 > 0.37
|   |   |   |   |   |   |   |   |   |   |   |   |   |   |   |   |   |   |   |   |   |   |   104 <= 0.69
|   |   |   |   |   |   |   |   |   |   |   |   |   |   |   |   |   |   |   |   |   |   |   |   539 <= 0.26
|   |   |   |   |   |   |   |   |   |   |   |   |   |   |   |   |   |   |   |   |   |   |   |   |   575 <= 0.66
|   |   |   |   |   |   |   |   |   |   |   |   |   |   |   |   |   |   |   |   |   |   |   |   |   |   490 <= 0.28: indian (7.0)
|   |   |   |   |   |   |   |   |   |   |   |   |   |   |   |   |   |   |   |   |   |   |   |   |   |   490 > 0.28
|   |   |   |   |   |   |   |   |   |   |   |   |   |   |   |   |   |   |   |   |   |   |   |   |   |   |   777 <= 0.6
|   |   |   |   |   |   |   |   |   |   |   |   |   |   |   |   |   |   |   |   |   |   |   |   |   |   |   |   501 <= 0.51
|   |   |   |   |   |   |   |   |   |   |   |   |   |   |   |   |   |   |   |   |   |   |   |   |   |   |   |   |   79 <= 0.66
|   |   |   |   |   |   |   |   |   |   |   |   |   |   |   |   |   |   |   |   |   |   |   |   |   |   |   |   |   |   993 <= 0.52
|   |   |   |   |   |   |   |   |   |   |   |   |   |   |   |   |   |   |   |   |   |   |   |   |   |   |   |   |   |   |   228 <= 0.41: italian (4.0/1.0)
|   |   |   |   |   |   |   |   |   |   |   |   |   |   |   |   |   |   |   |   |   |   |   |   |   |   |   |   |   |   |   228 > 0.41: japanese (2.0)
|   |   |   |   |   |   |   |   |   |   |   |   |   |   |   |   |   |   |   |   |   |   |   |   |   |   |   |   |   |   993 > 0.52
|   |   |   |   |   |   |   |   |   |   |   |   |   |   |   |   |   |   |   |   |   |   |   |   |   |   |   |   |   |   |   104 <= 0.55: korean (3.0)
|   |   |   |   |   |   |   |   |   |   |   |   |   |   |   |   |   |   |   |   |   |   |   |   |   |   |   |   |   |   |   104 > 0.55: chinese (2.0)
|   |   |   |   |   |   |   |   |   |   |   |   |   |   |   |   |   |   |   |   |   |   |   |   |   |   |   |   |   79 > 0.66
|   |   |   |   |   |   |   |   |   |   |   |   |   |   |   |   |   |   |   |   |   |   |   |   |   |   |   |   |   |   520 <= 0.68: mexican (6.0)
